{"learner":{"attributes":{"scikit_learn":"{\"_estimator_type\": \"classifier\"}"},"feature_names":["Quick Ratio","Fixed Assets to Assets","Interest-bearing debt interest rate","Total debt/Total net worth","Borrowing dependency","ROA(C) before interest and depreciation before interest","Continuous Net Profit Growth Rate","Research and development expense rate","Allocation rate per person","Revenue per person","Cash/Current Liability","Accounts Receivable Turnover","Quick Assets/Total Assets","Total income/Total expense","Net Value Per Share (B)","Cash Flow to Equity","Non-industry income and expenditure/revenue","After-tax Net Profit Growth Rate","Inventory Turnover Rate (times)","Total expense/Assets","Net Value Growth Rate","Operating Expense Rate","Total Asset Growth Rate","Cash Turnover Rate","Current Liabilities/Liability","Interest Expense Ratio","Operating Profit Growth Rate","Long-term fund suitability ratio (A)","Cash Flow Per Share","Average Collection Days"],"feature_types":["float","float","float","float","float","float","float","float","float","float","float","float","float","float","float","float","float","float","float","float","float","float","float","float","float","float","float","float","float","float"],"gradient_booster":{"model":{"gbtree_model_param":{"num_parallel_tree":"1","num_trees":"1000"},"iteration_indptr":[0,1,2,3,4,5,6,7,8,9,10,11,12,13,14,15,16,17,18,19,20,21,22,23,24,25,26,27,28,29,30,31,32,33,34,35,36,37,38,39,40,41,42,43,44,45,46,47,48,49,50,51,52,53,54,55,56,57,58,59,60,61,62,63,64,65,66,67,68,69,70,71,72,73,74,75,76,77,78,79,80,81,82,83,84,85,86,87,88,89,90,91,92,93,94,95,96,97,98,99,100,101,102,103,104,105,106,107,108,109,110,111,112,113,114,115,116,117,118,119,120,121,122,123,124,125,126,127,128,129,130,131,132,133,134,135,136,137,138,139,140,141,142,143,144,145,146,147,148,149,150,151,152,153,154,155,156,157,158,159,160,161,162,163,164,165,166,167,168,169,170,171,172,173,174,175,176,177,178,179,180,181,182,183,184,185,186,187,188,189,190,191,192,193,194,195,196,197,198,199,200,201,202,203,204,205,206,207,208,209,210,211,212,213,214,215,216,217,218,219,220,221,222,223,224,225,226,227,228,229,230,231,232,233,234,235,236,237,238,239,240,241,242,243,244,245,246,247,248,249,250,251,252,253,254,255,256,257,258,259,260,261,262,263,264,265,266,267,268,269,270,271,272,273,274,275,276,277,278,279,280,281,282,283,284,285,286,287,288,289,290,291,292,293,294,295,296,297,298,299,300,301,302,303,304,305,306,307,308,309,310,311,312,313,314,315,316,317,318,319,320,321,322,323,324,325,326,327,328,329,330,331,332,333,334,335,336,337,338,339,340,341,342,343,344,345,346,347,348,349,350,351,352,353,354,355,356,357,358,359,360,361,362,363,364,365,366,367,368,369,370,371,372,373,374,375,376,377,378,379,380,381,382,383,384,385,386,387,388,389,390,391,392,393,394,395,396,397,398,399,400,401,402,403,404,405,406,407,408,409,410,411,412,413,414,415,416,417,418,419,420,421,422,423,424,425,426,427,428,429,430,431,432,433,434,435,436,437,438,439,440,441,442,443,444,445,446,447,448,449,450,451,452,453,454,455,456,457,458,459,460,461,462,463,464,465,466,467,468,469,470,471,472,473,474,475,476,477,478,479,480,481,482,483,484,485,486,487,488,489,490,491,492,493,494,495,496,497,498,499,500,501,502,503,504,505,506,507,508,509,510,511,512,513,514,515,516,517,518,519,520,521,522,523,524,525,526,527,528,529,530,531,532,533,534,535,536,537,538,539,540,541,542,543,544,545,546,547,548,549,550,551,552,553,554,555,556,557,558,559,560,561,562,563,564,565,566,567,568,569,570,571,572,573,574,575,576,577,578,579,580,581,582,583,584,585,586,587,588,589,590,591,592,593,594,595,596,597,598,599,600,601,602,603,604,605,606,607,608,609,610,611,612,613,614,615,616,617,618,619,620,621,622,623,624,625,626,627,628,629,630,631,632,633,634,635,636,637,638,639,640,641,642,643,644,645,646,647,648,649,650,651,652,653,654,655,656,657,658,659,660,661,662,663,664,665,666,667,668,669,670,671,672,673,674,675,676,677,678,679,680,681,682,683,684,685,686,687,688,689,690,691,692,693,694,695,696,697,698,699,700,701,702,703,704,705,706,707,708,709,710,711,712,713,714,715,716,717,718,719,720,721,722,723,724,725,726,727,728,729,730,731,732,733,734,735,736,737,738,739,740,741,742,743,744,745,746,747,748,749,750,751,752,753,754,755,756,757,758,759,760,761,762,763,764,765,766,767,768,769,770,771,772,773,774,775,776,777,778,779,780,781,782,783,784,785,786,787,788,789,790,791,792,793,794,795,796,797,798,799,800,801,802,803,804,805,806,807,808,809,810,811,812,813,814,815,816,817,818,819,820,821,822,823,824,825,826,827,828,829,830,831,832,833,834,835,836,837,838,839,840,841,842,843,844,845,846,847,848,849,850,851,852,853,854,855,856,857,858,859,860,861,862,863,864,865,866,867,868,869,870,871,872,873,874,875,876,877,878,879,880,881,882,883,884,885,886,887,888,889,890,891,892,893,894,895,896,897,898,899,900,901,902,903,904,905,906,907,908,909,910,911,912,913,914,915,916,917,918,919,920,921,922,923,924,925,926,927,928,929,930,931,932,933,934,935,936,937,938,939,940,941,942,943,944,945,946,947,948,949,950,951,952,953,954,955,956,957,958,959,960,961,962,963,964,965,966,967,968,969,970,971,972,973,974,975,976,977,978,979,980,981,982,983,984,985,986,987,988,989,990,991,992,993,994,995,996,997,998,999,1000],"tree_info":[0,0,0,0,0,0,0,0,0,0,0,0,0,0,0,0,0,0,0,0,0,0,0,0,0,0,0,0,0,0,0,0,0,0,0,0,0,0,0,0,0,0,0,0,0,0,0,0,0,0,0,0,0,0,0,0,0,0,0,0,0,0,0,0,0,0,0,0,0,0,0,0,0,0,0,0,0,0,0,0,0,0,0,0,0,0,0,0,0,0,0,0,0,0,0,0,0,0,0,0,0,0,0,0,0,0,0,0,0,0,0,0,0,0,0,0,0,0,0,0,0,0,0,0,0,0,0,0,0,0,0,0,0,0,0,0,0,0,0,0,0,0,0,0,0,0,0,0,0,0,0,0,0,0,0,0,0,0,0,0,0,0,0,0,0,0,0,0,0,0,0,0,0,0,0,0,0,0,0,0,0,0,0,0,0,0,0,0,0,0,0,0,0,0,0,0,0,0,0,0,0,0,0,0,0,0,0,0,0,0,0,0,0,0,0,0,0,0,0,0,0,0,0,0,0,0,0,0,0,0,0,0,0,0,0,0,0,0,0,0,0,0,0,0,0,0,0,0,0,0,0,0,0,0,0,0,0,0,0,0,0,0,0,0,0,0,0,0,0,0,0,0,0,0,0,0,0,0,0,0,0,0,0,0,0,0,0,0,0,0,0,0,0,0,0,0,0,0,0,0,0,0,0,0,0,0,0,0,0,0,0,0,0,0,0,0,0,0,0,0,0,0,0,0,0,0,0,0,0,0,0,0,0,0,0,0,0,0,0,0,0,0,0,0,0,0,0,0,0,0,0,0,0,0,0,0,0,0,0,0,0,0,0,0,0,0,0,0,0,0,0,0,0,0,0,0,0,0,0,0,0,0,0,0,0,0,0,0,0,0,0,0,0,0,0,0,0,0,0,0,0,0,0,0,0,0,0,0,0,0,0,0,0,0,0,0,0,0,0,0,0,0,0,0,0,0,0,0,0,0,0,0,0,0,0,0,0,0,0,0,0,0,0,0,0,0,0,0,0,0,0,0,0,0,0,0,0,0,0,0,0,0,0,0,0,0,0,0,0,0,0,0,0,0,0,0,0,0,0,0,0,0,0,0,0,0,0,0,0,0,0,0,0,0,0,0,0,0,0,0,0,0,0,0,0,0,0,0,0,0,0,0,0,0,0,0,0,0,0,0,0,0,0,0,0,0,0,0,0,0,0,0,0,0,0,0,0,0,0,0,0,0,0,0,0,0,0,0,0,0,0,0,0,0,0,0,0,0,0,0,0,0,0,0,0,0,0,0,0,0,0,0,0,0,0,0,0,0,0,0,0,0,0,0,0,0,0,0,0,0,0,0,0,0,0,0,0,0,0,0,0,0,0,0,0,0,0,0,0,0,0,0,0,0,0,0,0,0,0,0,0,0,0,0,0,0,0,0,0,0,0,0,0,0,0,0,0,0,0,0,0,0,0,0,0,0,0,0,0,0,0,0,0,0,0,0,0,0,0,0,0,0,0,0,0,0,0,0,0,0,0,0,0,0,0,0,0,0,0,0,0,0,0,0,0,0,0,0,0,0,0,0,0,0,0,0,0,0,0,0,0,0,0,0,0,0,0,0,0,0,0,0,0,0,0,0,0,0,0,0,0,0,0,0,0,0,0,0,0,0,0,0,0,0,0,0,0,0,0,0,0,0,0,0,0,0,0,0,0,0,0,0,0,0,0,0,0,0,0,0,0,0,0,0,0,0,0,0,0,0,0,0,0,0,0,0,0,0,0,0,0,0,0,0,0,0,0,0,0,0,0,0,0,0,0,0,0,0,0,0,0,0,0,0,0,0,0,0,0,0,0,0,0,0,0,0,0,0,0,0,0,0,0,0,0,0,0,0,0,0,0,0,0,0,0,0,0,0,0,0,0,0,0,0,0,0,0,0,0,0,0,0,0,0,0,0,0,0,0,0,0,0,0,0,0,0,0,0,0,0,0,0,0,0,0,0,0,0,0,0,0,0,0,0,0,0,0,0,0,0,0,0,0,0,0,0,0,0,0,0,0,0,0,0,0,0,0,0,0,0,0,0,0,0,0,0,0,0,0,0,0,0,0,0,0,0,0,0,0,0,0,0,0,0,0,0,0,0,0,0,0,0,0,0,0,0,0,0,0,0,0,0,0,0,0,0,0,0,0,0,0,0,0,0,0,0,0,0,0,0,0,0,0,0,0,0,0,0,0,0,0,0,0,0,0,0,0,0,0,0,0,0,0,0,0,0,0,0,0,0],"trees":[{"base_weights":[-8.794755E-3,-1.2873844E0,1.1998653E0,5.40836E-1,-1.7042584E0,1.6506943E0,-4.4016868E-2,-1.1112394E0,1.1213555E0,-1.9294343E0,-9.19452E-1,1.7503995E0,7.9831773E-1,-1.9382606E-1,7.5308055E-1,-1.8667021E-1,1.3169669E-1,-1.5681468E-2,1.5699384E0,-1.991285E-1,-7.171327E-1,6.6650194E-1,-1.4142959E0,-1.1579167E-1,1.7700007E0,1.581304E0,-6.2641805E-1,1.1998667E0,-1.8298219E-1,1.7100732E-1,-1.7647393E-1,1.7278165E-1,-1.2381186E-1,1.3169669E-1,-1.7808557E-1,-1.5555851E-1,1.3273172E-1,-1.9526999E-1,3.923517E-2,1.7789784E-1,-7.692453E-2,1.7560278E-1,-1.00001894E-1,-1.7612274E-1,1.3999015E-1,1.4470457E-1,-1.6522053E-1],"categories":[],"categories_nodes":[],"categories_segments":[],"categories_sizes":[],"default_left":[0,0,0,0,0,0,0,0,0,0,0,0,0,0,0,0,0,0,0,0,0,0,0,0,0,0,0,0,0,0,0,0,0,0,0,0,0,0,0,0,0,0,0,0,0,0,0],"id":0,"left_children":[1,3,5,7,9,11,13,15,17,19,21,23,25,-1,27,-1,-1,29,31,-1,33,35,37,-1,39,41,43,45,-1,-1,-1,-1,-1,-1,-1,-1,-1,-1,-1,-1,-1,-1,-1,-1,-1,-1,-1],"loss_changes":[2.427222E3,5.8352954E2,4.529187E2,1.3986476E2,1.0637024E2,4.7574097E1,3.3016544E2,7.508122E1,5.4618774E1,3.3247437E1,1.13714745E2,3.4251343E1,7.5320816E1,0E0,1.8208948E2,0E0,0E0,1.0337366E2,3.8299576E1,0E0,6.202674E1,5.5885212E1,1.077982E2,0E0,1.4731689E1,2.290335E1,6.184077E1,9.817926E1,0E0,0E0,0E0,0E0,0E0,0E0,0E0,0E0,0E0,0E0,0E0,0E0,0E0,0E0,0E0,0E0,0E0,0E0,0E0],"parents":[2147483647,0,0,1,1,2,2,3,3,4,4,5,5,6,6,7,7,8,8,9,9,10,10,11,11,12,12,14,14,17,17,18,18,20,20,21,21,22,22,24,24,25,25,26,26,27,27],"right_children":[2,4,6,8,10,12,14,16,18,20,22,24,26,-1,28,-1,-1,30,32,-1,34,36,38,-1,40,42,44,46,-1,-1,-1,-1,-1,-1,-1,-1,-1,-1,-1,-1,-1,-1,-1,-1,-1,-1,-1],"split_conditions":[9.85692E-3,4.4366986E-1,2.2369032E-3,4.696377E-3,1.7517356E-2,4.9352017E-3,4.290429E-4,7.300555E-2,1.1343864E-2,9.071759E-3,1.5958647E-4,2.010201E-4,2.0356376E-3,-1.9382606E-1,2.62E9,-1.8667021E-1,1.3169669E-1,5.1932916E-4,2.04701E-3,-1.991285E-1,1.420142E-4,6.229266E-3,6.830683E-4,-1.1579167E-1,9.640964E-4,5.1910853E-1,6.8963027E-1,5.0650805E-1,-1.8298219E-1,1.7100732E-1,-1.7647393E-1,1.7278165E-1,-1.2381186E-1,1.3169669E-1,-1.7808557E-1,-1.5555851E-1,1.3273172E-1,-1.9526999E-1,3.923517E-2,1.7789784E-1,-7.692453E-2,1.7560278E-1,-1.00001894E-1,-1.7612274E-1,1.3999015E-1,1.4470457E-1,-1.6522053E-1],"split_indices":[3,5,13,3,8,0,2,0,8,3,23,2,13,0,23,0,0,8,13,0,2,29,2,0,2,12,17,5,0,0,0,0,0,0,0,0,0,0,0,0,0,0,0,0,0,0,0],"split_type":[0,0,0,0,0,0,0,0,0,0,0,0,0,0,0,0,0,0,0,0,0,0,0,0,0,0,0,0,0,0,0,0,0,0,0,0,0,0,0,0,0,0,0,0,0,0,0],"sum_hessian":[1.5666318E3,7.6122955E2,8.054023E2,1.4123636E2,6.1999316E2,5.906682E2,2.1473409E2,3.6248863E1,1.049875E2,4.7949887E2,1.4049432E2,5.26925E2,6.3743183E1,6.275E1,1.5198409E2,2.8E1,8.248863E0,3.0247726E1,7.473978E1,4.55E2,2.4498863E1,3.324659E1,1.0724773E2,2.75E0,5.24175E2,4.099432E1,2.2748863E1,1.3048409E2,2.15E1,1.5247727E1,1.5E1,7.148978E1,3.25E0,8.248863E0,1.625E1,7E0,2.6246592E1,8.25E1,2.4747726E1,5.22925E2,1.25E0,3.899432E1,2E0,1.475E1,7.9988637E0,1.2098409E2,9.5E0],"tree_param":{"num_deleted":"0","num_feature":"30","num_nodes":"47","size_leaf_vector":"1"}},{"base_weights":[1.1454079E-1,1.174456E0,-1.1867294E0,-1.9587076E-1,1.5440458E0,-3.00992E-1,-1.7024938E0,1.4804854E0,-6.769023E-1,8.8715506E-1,1.6237911E0,-1.0308455E0,1.0436916E0,1.3344307E0,-1.7658736E0,1.6832242E0,-1.0555702E-1,1.025708E0,-1.2761941E0,1.1590362E0,-1.5806954E-1,1.6338875E0,-9.527246E-2,1.3581918E-1,-1.564936E0,1.2550383E0,-1.4777638E-1,1.7491452E-1,-6.9684826E-2,6.8433887E-1,-1.8261385E-1,9.411059E-2,1.8360437E-1,-1.3070767E-1,1.4029403E-1,1.2314953E-2,-1.7928253E-1,-1.3121921E-1,1.3348278E-1,-9.25352E-2,1.643873E-1,1.0624551E-1,-1.6807728E-1,-1.8053026E-1,1.8487945E-2,-1.3062204E-1,1.409687E-1,-1.0878761E-1,1.4708902E-1],"categories":[],"categories_nodes":[],"categories_segments":[],"categories_sizes":[],"default_left":[0,0,0,0,0,0,0,0,0,0,0,0,0,0,0,0,0,0,0,0,0,0,0,0,0,0,0,0,0,0,0,0,0,0,0,0,0,0,0,0,0,0,0,0,0,0,0,0,0],"id":1,"left_children":[1,3,5,7,9,11,13,15,17,19,21,23,25,27,29,31,-1,33,35,37,-1,39,-1,41,43,45,-1,-1,-1,47,-1,-1,-1,-1,-1,-1,-1,-1,-1,-1,-1,-1,-1,-1,-1,-1,-1,-1,-1],"loss_changes":[2.266778E3,4.5927454E2,3.3604443E2,1.5856241E2,3.4494263E1,2.7102347E2,9.4385254E1,2.6133705E1,1.5794989E2,5.8447136E1,1.9601685E1,1.1170145E2,5.5601913E1,1.1420454E1,7.001294E1,1.243515E0,0E0,3.952049E1,8.248886E1,3.59543E1,0E0,1.91958E1,0E0,1.0107138E2,5.2259064E1,3.969893E1,0E0,0E0,0E0,2.0527597E1,0E0,0E0,0E0,0E0,0E0,0E0,0E0,0E0,0E0,0E0,0E0,0E0,0E0,0E0,0E0,0E0,0E0,0E0,0E0],"parents":[2147483647,0,0,1,1,2,2,3,3,4,4,5,5,6,6,7,7,8,8,9,9,10,10,11,11,12,12,13,13,14,14,15,15,17,17,18,18,19,19,21,21,23,23,24,24,25,25,29,29],"right_children":[2,4,6,8,10,12,14,16,18,20,22,24,26,28,30,32,-1,34,36,38,-1,40,-1,42,44,46,-1,-1,-1,48,-1,-1,-1,-1,-1,-1,-1,-1,-1,-1,-1,-1,-1,-1,-1,-1,-1,-1,-1],"split_conditions":[2.2314251E-3,9.017044E-3,5.3266226E-3,3.7803393E-4,1.129775E-2,1.261E-2,1.5380184E-4,3.1619155E-1,8.089497E-4,4.3385688E-4,3.0360186E-1,1.8951204E-4,2.7416114E-2,3.246325E-4,3.9749834E-4,2.1747026E-1,-1.0555702E-1,1.4938862E-2,2.1744043E-1,2.1747026E-1,-1.5806954E-1,2.8658837E-1,-9.527246E-2,3.2340667E-1,8.9E9,3.1495366E-1,-1.4777638E-1,1.7491452E-1,-6.9684826E-2,8.500898E-3,-1.8261385E-1,9.411059E-2,1.8360437E-1,-1.3070767E-1,1.4029403E-1,1.2314953E-2,-1.7928253E-1,-1.3121921E-1,1.3348278E-1,-9.25352E-2,1.643873E-1,1.0624551E-1,-1.6807728E-1,-1.8053026E-1,1.8487945E-2,-1.3062204E-1,1.409687E-1,-1.0878761E-1,1.4708902E-1],"split_indices":[13,3,27,20,3,3,10,28,10,20,16,23,19,11,20,6,0,19,6,6,0,28,0,28,22,28,0,0,0,3,0,0,0,0,0,0,0,0,0,0,0,0,0,0,0,0,0,0,0],"split_type":[0,0,0,0,0,0,0,0,0,0,0,0,0,0,0,0,0,0,0,0,0,0,0,0,0,0,0,0,0,0,0,0,0,0,0,0,0,0,0,0,0,0,0,0,0,0,0,0,0],"sum_hessian":[1.6394817E3,9.036403E2,7.358414E2,1.9214926E2,7.11491E2,2.7196133E2,4.6388004E2,4.1916878E1,1.5023239E2,7.964841E1,6.3184265E2,1.7658379E2,9.537754E1,8.663184E0,4.5521686E2,3.9436764E1,2.4801116E0,3.8741962E1,1.1149043E2,7.269982E1,6.948589E0,6.301052E2,1.7374349E0,5.5921207E1,1.2066258E2,8.8928154E1,6.4493866E0,7.425044E0,1.2381396E0,1.0430473E1,4.4478638E2,9.178914E0,3.025785E1,4.7066236E0,3.403534E1,3.047347E1,8.101696E1,3.9694536E0,6.873036E1,1.7363831E0,6.2836884E2,3.758138E1,1.8339827E1,1.0603366E2,1.4628925E1,4.215709E0,8.471245E1,2.9707494E0,7.4597244E0],"tree_param":{"num_deleted":"0","num_feature":"30","num_nodes":"49","size_leaf_vector":"1"}},{"base_weights":[1.5391253E-1,9.3198264E-1,-1.2438487E0,1.3061091E0,-2.0651129E-1,6.25281E-1,-1.4396542E0,1.5362618E0,1.0881437E0,6.1297756E-1,-1.4646014E0,9.452971E-1,-1.3623892E-1,-6.842644E-1,-1.5674597E0,1.5539229E0,-9.589607E-2,1.1381292E0,-1.4286833E-1,1.1603025E0,-3.8055426E-1,-1.6994235E-1,9.8071563E-1,1.1823251E0,-1.1716032E-1,-1.3073468E0,1.5237402E0,-6.0137933E-1,-1.6872571E-1,1.5709268E-1,7.1154065E-2,-1.4300251E-1,1.1759334E-1,-1.2734255E-1,1.292395E-1,1.0119714E-1,-1.6487493E-1,-6.718602E-2,1.3430858E-1,1.3277513E-1,-9.2926815E-2,-1.7060609E-1,1.11048736E-1,1.848744E-1,-8.034015E-2,1.2496386E-1,-1.613369E-1],"categories":[],"categories_nodes":[],"categories_segments":[],"categories_sizes":[],"default_left":[0,0,0,0,0,0,0,0,0,0,0,0,0,0,0,0,0,0,0,0,0,0,0,0,0,0,0,0,0,0,0,0,0,0,0,0,0,0,0,0,0,0,0,0,0,0,0],"id":2,"left_children":[1,3,5,7,9,11,13,15,17,19,21,23,-1,25,27,29,-1,31,-1,33,35,-1,37,39,-1,41,43,45,-1,-1,-1,-1,-1,-1,-1,-1,-1,-1,-1,-1,-1,-1,-1,-1,-1,-1,-1],"loss_changes":[1.8085999E3,4.5548114E2,2.1947998E2,3.699878E1,2.759401E2,3.9337364E1,4.9889893E1,2.0003967E1,5.607544E1,8.9209885E1,6.3898163E1,2.8340233E1,0E0,1.1617059E2,5.114319E1,3.2697754E0,0E0,4.344275E1,0E0,3.7119675E1,1.0788802E2,0E0,8.0982E0,1.6846375E1,0E0,6.613663E1,1.7242802E1,1.04800186E2,0E0,0E0,0E0,0E0,0E0,0E0,0E0,0E0,0E0,0E0,0E0,0E0,0E0,0E0,0E0,0E0,0E0,0E0,0E0],"parents":[2147483647,0,0,1,1,2,2,3,3,4,4,5,5,6,6,7,7,8,8,9,9,10,10,11,11,13,13,14,14,15,15,17,17,19,19,20,20,22,22,23,23,25,25,26,26,27,27],"right_children":[2,4,6,8,10,12,14,16,18,20,22,24,-1,26,28,30,-1,32,-1,34,36,-1,38,40,-1,42,44,46,-1,-1,-1,-1,-1,-1,-1,-1,-1,-1,-1,-1,-1,-1,-1,-1,-1,-1,-1],"split_conditions":[2.271978E-3,5.017549E-3,4.8306925E-4,1.5886393E-1,3.0344597E-1,9.43157E-1,5.1227026E-3,2.1762864E-1,5.0080436E-1,7.283942E-4,1.0150071E-1,5.0650805E-1,-1.3623892E-1,5.748278E-2,3.1173515E-1,7.024052E-1,-9.589607E-2,1.9367111E-3,-1.4286833E-1,5.6956634E-3,1.5460789E-1,-1.6994235E-1,1.4094613E-1,2.1764264E-1,-1.1716032E-1,3.040906E-1,3.034897E-1,5.249501E-1,-1.6872571E-1,1.5709268E-1,7.1154065E-2,-1.4300251E-1,1.1759334E-1,-1.2734255E-1,1.292395E-1,1.0119714E-1,-1.6487493E-1,-6.718602E-2,1.3430858E-1,1.3277513E-1,-9.2926815E-2,-1.7060609E-1,1.11048736E-1,1.848744E-1,-8.034015E-2,1.2496386E-1,-1.613369E-1],"split_indices":[13,0,10,14,16,24,27,6,5,11,0,5,0,9,28,1,0,13,0,0,14,0,1,6,0,16,16,24,0,0,0,0,0,0,0,0,0,0,0,0,0,0,0,0,0,0,0],"split_type":[0,0,0,0,0,0,0,0,0,0,0,0,0,0,0,0,0,0,0,0,0,0,0,0,0,0,0,0,0,0,0,0,0,0,0,0,0,0,0,0,0,0,0,0,0,0,0],"sum_hessian":[1.6588625E3,1.0660869E3,5.927757E2,8.021829E2,2.6390396E2,5.5793453E1,5.3698224E2,3.842995E2,4.1788342E2,1.6042963E2,1.0347435E2,4.8959743E1,6.83371E0,7.954457E1,4.5743765E2,3.8234772E2,1.9517686E0,4.1081992E2,7.0635123E0,1.03227234E2,5.7202385E1,9.4965E1,8.509358E0,4.4823814E1,4.1359286E0,6.2674194E1,1.6870378E1,5.179423E1,4.056434E2,3.7308704E2,9.26068E0,4.8912024E0,4.059287E2,4.424653E0,9.880258E1,2.7457308E1,2.9745077E1,1.2231381E0,7.28622E0,4.263027E1,2.193544E0,5.430738E1,8.366816E0,1.5163782E1,1.7065969E0,1.8141735E1,3.3652496E1],"tree_param":{"num_deleted":"0","num_feature":"30","num_nodes":"47","size_leaf_vector":"1"}},{"base_weights":[7.9571735E-3,-9.809388E-1,9.979954E-1,7.8065735E-1,-1.301405E0,1.1561223E0,-1.5806776E-1,1.1165017E0,-1.4801385E-1,-1.5509464E0,-5.469702E-1,1.359043E0,5.435428E-1,1.2690264E0,-1.3844424E-1,-5.973498E-1,-1.5956314E-1,-1.1460931E0,4.859449E-1,-1.2425005E-1,1.3815198E0,1.1181693E0,-5.212828E-1,-1.12979256E-1,1.3852827E-1,-1.534711E-1,1.161829E-1,1.5249155E-1,-1.3876386E-1,1.1270573E-1,-1.4721374E-1,1.3986723E-1,-1.1315268E-1,-1.3792828E-1,1.3225456E-1,7.140186E-2,-1.634367E-1],"categories":[],"categories_nodes":[],"categories_segments":[],"categories_sizes":[],"default_left":[0,0,0,0,0,0,0,0,0,0,0,0,0,0,0,0,0,0,0,0,0,0,0,0,0,0,0,0,0,0,0,0,0,0,0,0,0],"id":3,"left_children":[1,3,5,7,9,11,-1,13,-1,15,17,19,21,23,-1,25,-1,27,29,-1,31,33,35,-1,-1,-1,-1,-1,-1,-1,-1,-1,-1,-1,-1,-1,-1],"loss_changes":[1.4742451E3,4.2731775E2,3.1047516E2,9.229437E1,1.1844116E2,8.67962E1,0E0,4.2873947E1,0E0,1.8480713E1,1.0118156E2,3.4547363E1,1.1132572E2,3.05428E1,0E0,4.4151974E1,0E0,7.0643295E1,7.959998E1,0E0,2.5945618E1,6.3658127E1,9.097512E1,0E0,0E0,0E0,0E0,0E0,0E0,0E0,0E0,0E0,0E0,0E0,0E0,0E0,0E0],"parents":[2147483647,0,0,1,1,2,2,3,3,4,4,5,5,7,7,9,9,10,10,11,11,12,12,13,13,15,15,17,17,18,18,20,20,21,21,22,22],"right_children":[2,4,6,8,10,12,-1,14,-1,16,18,20,22,24,-1,26,-1,28,30,-1,32,34,36,-1,-1,-1,-1,-1,-1,-1,-1,-1,-1,-1,-1,-1,-1],"split_conditions":[1.0384008E-2,1.6168724E-1,5.061668E-1,6.89512E-1,1.7517356E-2,4.7096962E-1,-1.5806776E-1,4.68E9,-1.4801385E-1,6.295359E-1,6.3163584E-1,6.063593E-3,7.6020646E-1,2.4922716E-3,-1.3844424E-1,5.89243E-1,-1.5956314E-1,1.022722E-4,8.36E8,-1.2425005E-1,7.304672E-1,2.4441743E-1,6.8928367E-1,-1.12979256E-1,1.3852827E-1,-1.534711E-1,1.161829E-1,1.5249155E-1,-1.3876386E-1,1.1270573E-1,-1.4721374E-1,1.3986723E-1,-1.1315268E-1,-1.3792828E-1,1.3225456E-1,7.140186E-2,-1.634367E-1],"split_indices":[3,14,5,17,8,5,0,18,0,25,25,19,24,3,0,12,0,23,23,0,12,1,17,0,0,0,0,0,0,0,0,0,0,0,0,0,0],"split_type":[0,0,0,0,0,0,0,0,0,0,0,0,0,0,0,0,0,0,0,0,0,0,0,0,0,0,0,0,0,0,0,0,0,0,0,0,0],"sum_hessian":[1.5017997E3,7.513424E2,7.504572E2,1.1520281E2,6.361396E2,7.0813684E2,4.2320377E1,1.0118407E2,1.4018742E1,4.7643845E2,1.5970119E2,5.301007E2,1.7803612E2,9.629642E1,4.887653E0,2.2612602E1,4.5382584E2,1.00936005E2,5.8765175E1,3.6108525E0,5.2648987E2,1.15569534E2,6.246658E1,3.6452107E0,9.265121E1,1.491858E1,7.6940227E0,7.4896092E0,9.3446396E1,4.4909718E1,1.3855459E1,5.2380164E2,2.6882534E0,7.8723874E0,1.0769714E2,2.994768E1,3.25189E1],"tree_param":{"num_deleted":"0","num_feature":"30","num_nodes":"37","size_leaf_vector":"1"}},{"base_weights":[9.253378E-2,-8.817702E-1,1.0205992E0,1.8161477E-1,-1.3263994E0,1.1502738E0,-1.4763789E-1,-1.5262745E-1,6.3749903E-1,-1.4591901E0,3.6367056E-1,1.3264029E0,4.504733E-1,9.5100796E-1,-1.5057299E-1,-1.508645E-1,-8.6278075E-1,-1.354968E-1,1.2685279E0,1.3353629E0,-8.153004E-2,8.977616E-1,-1.5747838E-1,-1.538844E-1,1.1053546E-1,-1.4990214E-1,1.4683186E-1,-8.496442E-2,1.5345979E-1,1.5858386E-2,1.3553411E-1,1.0884763E-1,-1.3902931E-1],"categories":[],"categories_nodes":[],"categories_segments":[],"categories_sizes":[],"default_left":[0,0,0,0,0,0,0,0,0,0,0,0,0,0,0,0,0,0,0,0,0,0,0,0,0,0,0,0,0,0,0,0,0],"id":4,"left_children":[1,3,5,7,9,11,-1,-1,13,15,17,19,21,23,-1,-1,25,-1,27,29,-1,31,-1,-1,-1,-1,-1,-1,-1,-1,-1,-1,-1],"loss_changes":[1.3705121E3,3.501386E2,2.5471649E2,1.7308542E2,1.1814905E2,8.988788E1,0E0,0E0,1.2038595E2,1.1675781E1,6.503148E1,1.3486938E1,1.401758E2,6.251129E1,0E0,0E0,6.631E1,0E0,1.7812794E1,1.3385986E1,0E0,5.777533E1,0E0,0E0,0E0,0E0,0E0,0E0,0E0,0E0,0E0,0E0,0E0],"parents":[2147483647,0,0,1,1,2,2,3,3,4,4,5,5,8,8,9,9,10,10,11,11,12,12,13,13,16,16,18,18,19,19,21,21],"right_children":[2,4,6,8,10,12,-1,-1,14,16,18,20,22,24,-1,-1,26,-1,28,30,-1,32,-1,-1,-1,-1,-1,-1,-1,-1,-1,-1,-1],"split_conditions":[1.0543594E-2,3.0344597E-1,5.0650805E-1,4.4802525E-3,4.897492E-2,3.034815E-1,-1.4763789E-1,-1.5262745E-1,2.1759462E-1,8.960505E-3,7.702058E-3,1.9750537E-1,5.027108E-1,8.4778136E-1,-1.5057299E-1,-1.508645E-1,3.0372295E-1,-1.354968E-1,1.0727307E-2,5.0144675E-3,-8.153004E-2,1.867178E-1,-1.5747838E-1,-1.538844E-1,1.1053546E-1,-1.4990214E-1,1.4683186E-1,-8.496442E-2,1.5345979E-1,1.5858386E-2,1.3553411E-1,1.0884763E-1,-1.3902931E-1],"split_indices":[3,16,5,3,8,16,0,0,6,3,3,14,12,26,0,0,16,0,19,9,0,14,0,0,0,0,0,0,0,0,0,0,0],"split_type":[0,0,0,0,0,0,0,0,0,0,0,0,0,0,0,0,0,0,0,0,0,0,0,0,0,0,0,0,0,0,0,0,0],"sum_hessian":[1.5116974E3,7.3752594E2,7.741715E2,2.1780408E2,5.1972186E2,7.3697705E2,3.719447E1,4.4899647E1,1.7290443E2,4.8211478E2,3.7607067E1,5.8735736E2,1.4961964E2,1.5181035E2,2.1094086E1,4.4237366E2,3.974112E1,1.2627735E1,2.4979334E1,5.856602E2,1.6971731E0,1.23465164E2,2.615447E1,7.814247E0,1.439961E2,3.1780872E1,7.9602466E0,2.2980478E0,2.2681286E1,1.007518E1,5.75585E2,1.1493372E2,8.53144E0],"tree_param":{"num_deleted":"0","num_feature":"30","num_nodes":"33","size_leaf_vector":"1"}},{"base_weights":[1.08474135E-1,9.368711E-1,-8.025797E-1,1.2717898E0,4.875349E-1,3.8357252E-1,-1.3560674E0,-1.372978E-1,1.3025068E0,8.440182E-1,-4.7332123E-1,1.0517823E0,-5.346943E-1,6.496848E-1,-1.4078368E0,-1.0389353E-1,1.3201555E0,2.705485E-1,1.3018314E0,5.088716E-1,-1.4762256E-1,-1.2268019E-1,1.147363E0,-1.1489033E0,7.528982E-1,-9.808877E-2,1.523701E-1,-5.865939E-1,-1.4527003E-1,1.3329546E-1,5.5659335E-2,-1.1404387E-1,7.6186284E-2,1.381466E-1,-1.2820494E-1,-1.8621175E-2,1.7042945E-1,-1.1156348E-1,1.2155125E-1,-1.5412687E-1,1.0157906E-1,1.3777402E-1,-1.1932255E-1,1.0655618E-1,-1.4178456E-1],"categories":[],"categories_nodes":[],"categories_segments":[],"categories_sizes":[],"default_left":[0,0,0,0,0,0,0,0,0,0,0,0,0,0,0,0,0,0,0,0,0,0,0,0,0,0,0,0,0,0,0,0,0,0,0,0,0,0,0,0,0,0,0,0,0],"id":5,"left_children":[1,3,5,7,9,11,13,-1,15,17,19,21,23,25,27,-1,29,31,33,35,-1,-1,37,39,41,-1,-1,43,-1,-1,-1,-1,-1,-1,-1,-1,-1,-1,-1,-1,-1,-1,-1,-1,-1],"loss_changes":[1.1076167E3,1.14419495E2,4.5998615E2,3.924829E1,1.1433166E2,1.3855331E2,5.1368164E1,0E0,2.0721985E1,6.295633E1,9.11176E1,3.1195541E1,7.738382E1,2.2046827E1,1.5454224E1,0E0,2.744873E0,7.810976E1,3.117891E1,4.0061592E1,0E0,0E0,2.2159378E1,5.8813072E1,4.2325966E1,0E0,0E0,4.075865E1,0E0,0E0,0E0,0E0,0E0,0E0,0E0,0E0,0E0,0E0,0E0,0E0,0E0,0E0,0E0,0E0,0E0],"parents":[2147483647,0,0,1,1,2,2,3,3,4,4,5,5,6,6,8,8,9,9,10,10,11,11,12,12,13,13,14,14,16,16,17,17,18,18,19,19,22,22,23,23,24,24,27,27],"right_children":[2,4,6,8,10,12,14,-1,16,18,20,22,24,26,28,-1,30,32,34,36,-1,-1,38,40,42,-1,-1,44,-1,-1,-1,-1,-1,-1,-1,-1,-1,-1,-1,-1,-1,-1,-1,-1,-1],"split_conditions":[4.7062838E-1,3.9557688E-4,4.277674E-3,2.022818E-4,5.3569176E-3,3.034757E-1,1.022722E-4,-1.372978E-1,1.480148E-4,6.1906193E-4,2.075053E-4,1.0282213E-2,3.72E9,2.0124257E-2,3.0339473E-1,-1.0389353E-1,3.2214716E-1,6.301232E-1,3.77E9,1.9737844E-4,-1.4762256E-1,-1.2268019E-1,1.3375112E-4,9.0009003E-4,5.0667515E-3,-9.808877E-2,1.523701E-1,1.295972E-4,-1.4527003E-1,1.3329546E-1,5.5659335E-2,-1.1404387E-1,7.6186284E-2,1.381466E-1,-1.2820494E-1,-1.8621175E-2,1.7042945E-1,-1.1156348E-1,1.2155125E-1,-1.5412687E-1,1.0157906E-1,1.3777402E-1,-1.1932255E-1,1.0655618E-1,-1.4178456E-1],"split_indices":[5,20,0,23,0,16,23,0,2,2,18,19,7,8,16,0,15,25,23,18,0,0,18,2,27,0,0,23,0,0,0,0,0,0,0,0,0,0,0,0,0,0,0,0,0],"split_type":[0,0,0,0,0,0,0,0,0,0,0,0,0,0,0,0,0,0,0,0,0,0,0,0,0,0,0,0,0,0,0,0,0,0,0,0,0,0,0,0,0,0,0,0,0],"sum_hessian":[1.463605E3,7.665473E2,6.970577E2,4.3709326E2,3.29454E2,2.219728E2,4.750849E2,4.014861E0,4.330784E2,2.4047833E2,8.897569E1,1.2831152E2,9.366127E1,1.1372424E1,4.6371246E2,2.374079E0,4.307043E2,1.0816709E2,1.3231125E2,4.544975E1,4.3525944E1,4.212706E0,1.24098816E2,6.3558125E1,3.010315E1,3.883248E0,7.4891763E0,2.5477955E1,4.3823453E2,4.2213684E2,8.567494E0,2.7254246E1,8.091284E1,1.2925824E2,3.0529985E0,2.9806879E1,1.5642869E1,2.7292597E0,1.2136955E2,5.429312E1,9.265002E0,2.3229101E1,6.874048E0,8.339337E0,1.7138618E1],"tree_param":{"num_deleted":"0","num_feature":"30","num_nodes":"45","size_leaf_vector":"1"}},{"base_weights":[1.4048314E-1,-6.171059E-1,1.046983E0,7.66979E-1,-9.580387E-1,1.2193991E0,5.727384E-1,-1.5021556E-2,1.3046283E0,-1.6382256E-1,-1.1936651E0,1.2453064E0,-1.5781169E-1,-1.2930118E-1,7.127334E-1,5.977396E-1,-1.6134071E-1,-9.733852E-2,1.3853197E0,2.5982395E-1,-1.3824949E-1,-4.7828886E-1,-1.3920976E-1,1.2571807E0,-1.1554313E-1,1.1122761E-1,1.2080219E0,1.03010476E-1,-1.3925344E-1,1.4432363E-1,-8.096728E-2,-1.5519552E-1,5.8783334E-2,-1.0610133E-1,1.01252295E-1,-9.6276805E-2,1.2693295E-1,7.261422E-2,-1.439407E-1,-1.1907195E-1,1.2997971E-1],"categories":[],"categories_nodes":[],"categories_segments":[],"categories_sizes":[],"default_left":[0,0,0,0,0,0,0,0,0,0,0,0,0,0,0,0,0,0,0,0,0,0,0,0,0,0,0,0,0,0,0,0,0,0,0,0,0,0,0,0,0],"id":6,"left_children":[1,3,5,7,9,11,13,15,17,19,21,23,-1,-1,25,27,-1,-1,29,31,-1,33,-1,35,-1,37,39,-1,-1,-1,-1,-1,-1,-1,-1,-1,-1,-1,-1,-1,-1],"loss_changes":[9.73067E2,3.6579993E2,5.133844E1,6.4663376E1,1.1570532E2,3.8082214E1,4.7742893E1,6.519946E1,1.9443604E1,7.519766E1,6.6539E1,1.6246643E1,0E0,0E0,4.8814407E1,4.4309082E1,0E0,0E0,1.3627747E1,6.644102E1,0E0,9.4989555E1,0E0,1.5029968E1,0E0,7.5130905E1,2.2941788E1,0E0,0E0,0E0,0E0,0E0,0E0,0E0,0E0,0E0,0E0,0E0,0E0,0E0,0E0],"parents":[2147483647,0,0,1,1,2,2,3,3,4,4,5,5,6,6,7,7,8,8,9,9,10,10,11,11,14,14,15,15,18,18,19,19,21,21,23,23,25,25,26,26],"right_children":[2,4,6,8,10,12,14,16,18,20,22,24,-1,-1,26,28,-1,-1,30,32,-1,34,-1,36,-1,38,40,-1,-1,-1,-1,-1,-1,-1,-1,-1,-1,-1,-1,-1,-1],"split_conditions":[3.790426E-1,4.344562E-1,4.7228587E-1,6.819033E-2,4.277674E-3,3.20672E-1,1.0727307E-2,3.3974E-4,8.4756875E-1,4.9012822E-1,6.228886E-4,6.93E9,-1.5781169E-1,-1.2930118E-1,2.0124257E-2,5.6286794E-3,-1.6134071E-1,-9.733852E-2,8.480826E-1,2.3050904E-3,-1.3824949E-1,1.7517356E-2,-1.3920976E-1,1.480148E-4,-1.1554313E-1,4.277674E-3,3.4650427E-1,1.03010476E-1,-1.3925344E-1,1.4432363E-1,-8.096728E-2,-1.5519552E-1,5.8783334E-2,-1.0610133E-1,1.01252295E-1,-9.6276805E-2,1.2693295E-1,7.261422E-2,-1.439407E-1,-1.1907195E-1,1.2997971E-1],"split_indices":[4,5,5,19,0,15,19,21,26,5,11,7,0,0,8,27,0,0,26,0,0,8,0,2,0,0,24,0,0,0,0,0,0,0,0,0,0,0,0,0,0],"split_type":[0,0,0,0,0,0,0,0,0,0,0,0,0,0,0,0,0,0,0,0,0,0,0,0,0,0,0,0,0,0,0,0,0,0,0,0,0,0,0,0,0],"sum_hessian":[1.4130254E3,7.700827E2,6.429426E2,1.5170532E2,6.183774E2,4.6921326E2,1.737294E2,6.259958E1,8.910575E1,1.422596E2,4.761178E2,4.6600735E2,3.2059045E0,1.0976073E1,1.6275333E2,4.6156845E1,1.6442734E1,2.2913785E0,8.681438E1,1.0673051E2,3.5529083E1,1.0486947E2,3.7124832E2,4.6466174E2,1.3455942E0,7.460186E1,8.8151474E1,3.871196E1,7.4448857E0,8.524996E1,1.5644102E0,1.5216793E1,9.151372E1,7.581264E1,2.9056833E1,1.6772798E0,4.6298447E2,5.417989E1,2.0421974E1,2.3658655E0,8.578561E1],"tree_param":{"num_deleted":"0","num_feature":"30","num_nodes":"41","size_leaf_vector":"1"}},{"base_weights":[3.1904634E-2,-5.8702344E-1,8.61886E-1,3.9227226E-1,-1.1153884E0,1.1249511E0,3.73179E-1,1.2937402E0,-4.085707E-2,-1.2037529E0,3.3735353E-2,1.1670492E0,-1.24357976E-1,1.0604239E0,-1.4259337E-1,-1.19341016E-1,1.4109739E0,-9.2021084E-1,6.162963E-1,-1.252947E0,4.8884097E-1,1.6338505E0,-1.2275156E-1,-1.2181107E-1,1.1831475E0,1.14113405E-1,-1.6652523E-1,1.1774366E0,-1.13970794E-1,-1.6416769E-1,5.698076E-1,1.2364558E-1,1.9521949E-1,2.7009604E-2,-1.4737561E-1,-2.65762E-2,9.92195E-2,4.4326197E-2,-1.3027689E-1,-9.452936E-2,1.4090656E-1,-6.4169765E-2,1.8824571E-1,-1.0149479E-1,1.20107226E-1,1.2781191E-1,-9.980345E-2,1.0143024E-1,-1.6267075E-1],"categories":[],"categories_nodes":[],"categories_segments":[],"categories_sizes":[],"default_left":[0,0,0,0,0,0,0,0,0,0,0,0,0,0,0,0,0,0,0,0,0,0,0,0,0,0,0,0,0,0,0,0,0,0,0,0,0,0,0,0,0,0,0,0,0,0,0,0,0],"id":7,"left_children":[1,3,5,7,9,11,13,15,17,19,21,23,25,27,29,-1,31,33,35,37,39,41,-1,-1,43,-1,-1,45,-1,-1,47,-1,-1,-1,-1,-1,-1,-1,-1,-1,-1,-1,-1,-1,-1,-1,-1,-1,-1],"loss_changes":[6.659909E2,3.8517517E2,7.03548E1,1.023132E2,4.9120728E1,1.9171417E1,7.005124E1,2.815622E1,1.0442975E2,3.8571045E1,7.753446E1,1.6225098E1,3.0145622E1,2.4463684E1,1.2380226E2,0E0,2.927414E0,5.1697388E1,3.4843925E1,3.803528E1,2.128051E1,1.1985783E1,0E0,0E0,1.6077515E1,0E0,0E0,2.03611E1,0E0,0E0,8.031228E1,0E0,0E0,0E0,0E0,0E0,0E0,0E0,0E0,0E0,0E0,0E0,0E0,0E0,0E0,0E0,0E0,0E0,0E0],"parents":[2147483647,0,0,1,1,2,2,3,3,4,4,5,5,6,6,7,7,8,8,9,9,10,10,11,11,12,12,13,13,14,14,16,16,17,17,18,18,19,19,20,20,21,21,24,24,27,27,30,30],"right_children":[2,4,6,8,10,12,14,16,18,20,22,24,26,28,30,-1,32,34,36,38,40,42,-1,-1,44,-1,-1,46,-1,-1,48,-1,-1,-1,-1,-1,-1,-1,-1,-1,-1,-1,-1,-1,-1,-1,-1,-1,-1],"split_conditions":[3.786176E-1,6.3061225E-1,3.0342013E-1,3.8175215E-4,3.0398884E-1,3.173713E-1,5.430295E-4,6.3052696E-1,3.746698E-1,4.257569E-2,5.1701437E-3,4.3329466E-3,2.1429E-1,8.286944E-2,2.8915328E-1,-1.19341016E-1,3.034554E-1,3.6978704E-1,1.19E8,1.022722E-4,3.412676E-1,3.1522527E-1,-1.2275156E-1,-1.2181107E-1,1.1891472E-4,1.14113405E-1,-1.6652523E-1,3.2255784E-1,-1.13970794E-1,-1.6416769E-1,8.4806406E-1,1.2364558E-1,1.9521949E-1,2.7009604E-2,-1.4737561E-1,-2.65762E-2,9.92195E-2,4.4326197E-2,-1.3027689E-1,-9.452936E-2,1.4090656E-1,-6.4169765E-2,1.8824571E-1,-1.0149479E-1,1.20107226E-1,1.2781191E-1,-9.980345E-2,1.0143024E-1,-1.6267075E-1],"split_indices":[4,25,16,20,16,15,10,25,4,27,27,9,6,9,1,0,16,4,7,23,28,15,0,0,23,0,0,28,0,0,26,0,0,0,0,0,0,0,0,0,0,0,0,0,0,0,0,0,0],"split_type":[0,0,0,0,0,0,0,0,0,0,0,0,0,0,0,0,0,0,0,0,0,0,0,0,0,0,0,0,0,0,0,0,0,0,0,0,0,0,0,0,0,0,0,0,0,0,0,0,0],"sum_hessian":[1.2924921E3,7.407159E2,5.517762E2,2.59767E2,4.809489E2,3.5700235E2,1.9477383E2,8.3014915E1,1.7675208E2,4.465178E2,3.4431103E1,3.4549197E2,1.1510365E1,8.2600365E1,1.1217347E2,2.910399E0,8.0104515E1,7.525321E1,1.01498856E2,4.3441144E2,1.2106376E1,1.4916324E1,1.9514778E1,1.3150722E0,3.441769E2,6.6048555E0,4.9055085E0,7.9311874E1,3.2884905E0,3.5294815E1,7.6878654E1,6.554008E1,1.456444E1,2.4212465E1,5.104075E1,3.0504671E1,7.099419E1,1.1944972E1,4.2246646E2,4.710601E0,7.395775E0,1.1576617E0,1.3758662E1,1.8841063E0,3.422928E2,7.65921E1,2.7197697E0,6.483488E1,1.2043777E1],"tree_param":{"num_deleted":"0","num_feature":"30","num_nodes":"49","size_leaf_vector":"1"}},{"base_weights":[7.774795E-2,-6.510583E-1,8.991957E-1,2.4301651E-1,-1.107802E0,9.655277E-1,-1.2693806E-1,1.195637E0,-3.4407746E-2,-1.2991755E-1,-4.6624944E-1,1.1111758E0,3.8846457E-1,1.2950197E-1,-9.602389E-2,-8.0496097E-1,4.3475363E-1,-8.5358256E-1,1.3045433E0,1.1418604E0,-1.3059463E-1,7.650832E-1,-1.4668435E-1,2.0508228E-2,-1.4055225E-1,6.55215E-2,-1.3924754E-1,1.2361449E-1,-1.0856457E-1,1.7130043E-1,-7.802572E-2,-1.3351813E-1,1.15801774E-1,-3.0779827E-3,1.1797955E-1],"categories":[],"categories_nodes":[],"categories_segments":[],"categories_sizes":[],"default_left":[0,0,0,0,0,0,0,0,0,0,0,0,0,0,0,0,0,0,0,0,0,0,0,0,0,0,0,0,0,0,0,0,0,0,0],"id":8,"left_children":[1,3,5,7,9,11,-1,13,15,-1,17,19,21,-1,-1,23,25,27,29,31,-1,33,-1,-1,-1,-1,-1,-1,-1,-1,-1,-1,-1,-1,-1],"loss_changes":[7.4083765E2,2.6835446E2,8.612302E1,5.912012E1,5.2126953E1,4.6669983E1,0E0,1.3294075E1,6.3947365E1,0E0,7.282941E1,3.639514E1,8.403233E1,0E0,0E0,4.1164013E1,4.615294E1,4.422971E1,1.9078999E1,2.0938965E1,0E0,3.262029E1,0E0,0E0,0E0,0E0,0E0,0E0,0E0,0E0,0E0,0E0,0E0,0E0,0E0],"parents":[2147483647,0,0,1,1,2,2,3,3,4,4,5,5,7,7,8,8,10,10,11,11,12,12,15,15,16,16,17,17,18,18,19,19,21,21],"right_children":[2,4,6,8,10,12,-1,14,16,-1,18,20,22,-1,-1,24,26,28,30,32,-1,34,-1,-1,-1,-1,-1,-1,-1,-1,-1,-1,-1,-1,-1],"split_conditions":[3.7839955E-1,4.6940964E-1,5.1279676E-1,3.4724022E-4,1.6473621E-2,4.4733225E-4,-1.2693806E-1,5.3931004E-3,3.736107E-1,-1.2991755E-1,3.4238514E-2,3.0352864E-1,8.642694E-1,1.2950197E-1,-9.602389E-2,2.0291956E-4,2.4337446E-2,1.022722E-4,5.0518597E-3,4.3329466E-3,-1.3059463E-1,2.0839011E-2,-1.4668435E-1,2.0508228E-2,-1.4055225E-1,6.55215E-2,-1.3924754E-1,1.2361449E-1,-1.0856457E-1,1.7130043E-1,-7.802572E-2,-1.3351813E-1,1.15801774E-1,-3.0779827E-3,1.1797955E-1],"split_indices":[4,5,5,20,8,20,0,0,4,0,19,16,24,0,0,18,8,23,0,9,0,8,0,0,0,0,0,0,0,0,0,0,0,0,0],"split_type":[0,0,0,0,0,0,0,0,0,0,0,0,0,0,0,0,0,0,0,0,0,0,0,0,0,0,0,0,0,0,0,0,0,0,0],"sum_hessian":[1.2335039E3,6.538282E2,5.796757E2,2.2139125E2,4.3243695E2,5.6354755E2,1.6128168E1,4.84396E1,1.7295166E2,3.3150107E2,1.00935875E2,4.4849768E2,1.15049835E2,4.706843E1,1.3711703E0,6.4910614E1,1.0804104E2,8.367026E1,1.7265623E1,4.4391748E2,4.580215E0,9.661309E1,1.8436745E1,2.4694933E1,4.0215683E1,9.755369E1,1.04873495E1,7.497927E0,7.6172325E1,1.4735307E1,2.530317E0,1.8187339E0,4.4209875E2,3.3731483E1,6.2881603E1],"tree_param":{"num_deleted":"0","num_feature":"30","num_nodes":"35","size_leaf_vector":"1"}},{"base_weights":[1.2574348E-1,-5.683098E-1,9.1991323E-1,6.488432E-2,-1.1892691E0,9.4665843E-1,-1.0899909E-1,8.0747956E-1,-2.8431424E-1,1.1869311E0,-1.2630072E-1,9.636754E-1,-1.185203E-1,1.0389744E0,-1.3987398E-1,-1.3025235E-1,2.216707E-1,1.5820315E-1,-5.5288624E-2,1.0073783E0,2.27366E-1,1.1661575E-1,-1.0984709E-1,-7.0976834E-3,1.5403484E-1,1.02635324E-1,-1.1109574E-1,1.20401375E-1,-1.4334778E-1],"categories":[],"categories_nodes":[],"categories_segments":[],"categories_sizes":[],"default_left":[0,0,0,0,0,0,0,0,0,0,0,0,0,0,0,0,0,0,0,0,0,0,0,0,0,0,0,0,0],"id":9,"left_children":[1,3,5,7,9,11,-1,13,15,17,-1,19,-1,21,-1,-1,23,-1,-1,25,27,-1,-1,-1,-1,-1,-1,-1,-1],"loss_changes":[6.785644E2,2.585459E2,3.2919678E1,8.532626E1,6.115152E1,2.2873444E1,0E0,5.6633446E1,1.1602303E2,9.324806E0,0E0,1.7695618E1,0E0,2.875563E1,0E0,0E0,5.8645634E1,0E0,0E0,2.3662598E1,5.8912373E1,0E0,0E0,0E0,0E0,0E0,0E0,0E0,0E0],"parents":[2147483647,0,0,1,1,2,2,3,3,4,4,5,5,7,7,8,8,9,9,11,11,13,13,16,16,19,19,20,20],"right_children":[2,4,6,8,10,12,-1,14,16,18,-1,20,-1,22,-1,-1,24,-1,-1,26,28,-1,-1,-1,-1,-1,-1,-1,-1],"split_conditions":[3.790426E-1,2.2684112E-3,2.0070793E-1,1.584004E-1,3.246325E-4,8.4885293E-1,-1.0899909E-1,5.92E9,3.7341166E-1,4.139181E-3,-1.2630072E-1,2.1763045E-1,-1.185203E-1,2.0999042E-3,-1.3987398E-1,-1.3025235E-1,2.2589113E-3,1.5820315E-1,-5.5288624E-2,7.304672E-1,8.4805614E-1,1.1661575E-1,-1.0984709E-1,-7.0976834E-3,1.5403484E-1,1.02635324E-1,-1.1109574E-1,1.20401375E-1,-1.4334778E-1],"split_indices":[4,13,14,14,11,26,0,22,4,0,0,6,0,13,0,0,13,0,0,12,26,0,0,0,0,0,0,0,0],"split_type":[0,0,0,0,0,0,0,0,0,0,0,0,0,0,0,0,0,0,0,0,0,0,0,0,0,0,0,0,0],"sum_hessian":[1.2271792E3,6.5517084E2,5.7200836E2,3.2527646E2,3.2989438E2,5.655409E2,6.467483E0,1.0319669E2,2.2207976E2,9.020385E0,3.20874E2,5.621496E2,3.391269E0,9.435439E1,8.842306E0,7.267836E1,1.494014E2,7.498834E0,1.5215505E0,5.299582E2,3.219142E1,8.991317E1,4.441217E0,1.2381591E2,2.5585493E1,5.262751E2,3.683108E0,2.0617538E1,1.1573882E1],"tree_param":{"num_deleted":"0","num_feature":"30","num_nodes":"29","size_leaf_vector":"1"}},{"base_weights":[1.0102531E-1,-8.1468475E-1,6.5842026E-1,5.943044E-1,-1.0136026E0,1.0189531E0,1.6716592E-1,-1.3355547E-1,1.237132E0,1.15167014E-1,-1.0913038E0,-1.3461813E-1,1.0387481E0,-1.2145009E0,6.2662023E-1,1.5194639E0,-9.916705E-2,-1.2483566E-1,-3.7117535E-1,-1.1621527E-1,1.052497E0,8.045345E-2,-1.4461659E-1,-4.239001E-2,1.1593142E0,-5.888365E-2,1.6139512E-1,-1.2701467E-1,6.183653E-2,-8.134105E-2,1.0630008E-1,1.05751194E-1,-1.11405686E-1,-1.06837966E-1,1.21023215E-1],"categories":[],"categories_nodes":[],"categories_segments":[],"categories_sizes":[],"default_left":[0,0,0,0,0,0,0,0,0,0,0,0,0,0,0,0,0,0,0,0,0,0,0,0,0,0,0,0,0,0,0,0,0,0,0],"id":10,"left_children":[1,3,5,7,9,11,13,-1,15,-1,17,-1,19,21,23,25,-1,-1,27,-1,29,-1,-1,31,33,-1,-1,-1,-1,-1,-1,-1,-1,-1,-1],"loss_changes":[5.876959E2,1.2334E2,1.26391174E2,7.174798E1,6.688397E1,2.2098999E1,1.9530296E2,0E0,2.9709435E1,0E0,4.0961914E1,0E0,1.485257E1,3.8276497E1,8.220728E1,9.559029E0,0E0,0E0,6.309247E1,0E0,9.735443E0,0E0,0E0,1.2501607E2,1.714328E1,0E0,0E0,0E0,0E0,0E0,0E0,0E0,0E0,0E0,0E0],"parents":[2147483647,0,0,1,1,2,2,3,3,4,4,5,5,6,6,8,8,10,10,12,12,13,13,14,14,15,15,18,18,20,20,23,23,24,24],"right_children":[2,4,6,8,10,12,14,-1,16,-1,18,-1,20,22,24,26,-1,-1,28,-1,30,-1,-1,32,34,-1,-1,-1,-1,-1,-1,-1,-1,-1,-1],"split_conditions":[8.384173E-3,6.880624E-1,4.2544727E-4,3.969336E-1,3.4724022E-4,5.83E5,3.840384E-4,-1.3355547E-1,7.852049E-4,1.15167014E-1,2.3782883E-2,-1.3461813E-1,8.602418E-3,6.862827E-1,2.0124257E-2,6.8135434E-1,-9.916705E-2,-1.2483566E-1,6.8967813E-1,-1.1621527E-1,1.1152449E-4,8.045345E-2,-1.4461659E-1,5.0535536E-4,3.1072387E-1,-5.888365E-2,1.6139512E-1,-1.2701467E-1,6.183653E-2,-8.134105E-2,1.0630008E-1,1.05751194E-1,-1.11405686E-1,-1.06837966E-1,1.21023215E-1],"split_indices":[3,17,20,12,20,22,2,0,11,0,8,0,19,17,8,17,0,0,17,0,23,0,0,10,15,0,0,0,0,0,0,0,0,0,0],"split_type":[0,0,0,0,0,0,0,0,0,0,0,0,0,0,0,0,0,0,0,0,0,0,0,0,0,0,0,0,0,0,0,0,0,0,0],"sum_hessian":[1.1473127E3,4.33772E2,7.135407E2,5.3171135E1,3.8060086E2,4.102839E2,3.0325677E2,1.2747148E1,4.042399E1,1.2227152E1,3.6837372E2,2.2930813E0,4.079908E2,7.485795E1,2.2839883E2,3.644399E1,3.9799972E0,3.0121475E2,6.715896E1,1.4957646E0,4.0649506E2,7.196081E0,6.7661865E1,1.0206113E2,1.26337715E2,1.1144023E0,3.5329586E1,3.489271E1,3.2266243E1,1.419697E0,4.0507538E2,5.038009E1,5.1681034E1,1.9300985E0,1.24407616E2],"tree_param":{"num_deleted":"0","num_feature":"30","num_nodes":"35","size_leaf_vector":"1"}},{"base_weights":[9.054489E-2,6.0002184E-1,-7.3264307E-1,2.3053486E-2,9.58657E-1,-1.0912449E0,5.524263E-1,-3.30831E-1,1.1673282E0,9.8786527E-1,-1.3299505E-1,-1.2273591E-1,6.7302907E-1,-2.173479E-1,1.3691221E0,-1.2017256E0,7.8379944E-2,1.3940947E0,-1.0944747E-1,1.0108879E0,-1.1463823E-1,-9.0989806E-2,1.1533481E-1,-1.125554E0,1.0384996E0,1.5260631E0,-7.554242E-2,6.343645E-2,-1.4705311E-1,4.302499E-2,-1.2264009E-1,1.5166499E-1,-8.198564E-2,-8.533319E-2,1.02569304E-1,6.4836435E-2,-1.6158395E-1,-6.435805E-2,1.20540515E-1,7.519158E-2,1.7775749E-1],"categories":[],"categories_nodes":[],"categories_segments":[],"categories_sizes":[],"default_left":[0,0,0,0,0,0,0,0,0,0,0,0,0,0,0,0,0,0,0,0,0,0,0,0,0,0,0,0,0,0,0,0,0,0,0,0,0,0,0,0,0],"id":11,"left_children":[1,3,5,7,9,11,13,15,17,19,-1,-1,21,23,25,27,29,31,-1,33,-1,-1,-1,35,37,39,-1,-1,-1,-1,-1,-1,-1,-1,-1,-1,-1,-1,-1,-1,-1],"loss_changes":[4.567308E2,1.3910909E2,1.9310905E2,1.0598803E2,3.0346436E1,7.999872E1,5.8546852E1,7.1468864E1,3.4757477E1,2.249231E1,0E0,0E0,2.0847473E1,5.8430695E1,1.7310402E1,3.3482834E1,6.4391045E1,1.796994E1,0E0,1.299118E1,0E0,0E0,0E0,2.7752132E1,7.6381493E0,5.61512E0,0E0,0E0,0E0,0E0,0E0,0E0,0E0,0E0,0E0,0E0,0E0,0E0,0E0,0E0,0E0],"parents":[2147483647,0,0,1,1,2,2,3,3,4,4,5,5,6,6,7,7,8,8,9,9,12,12,13,13,14,14,15,15,16,16,17,17,19,19,23,23,24,24,25,25],"right_children":[2,4,6,8,10,12,14,16,18,20,-1,-1,22,24,26,28,30,32,-1,34,-1,-1,-1,36,38,40,-1,-1,-1,-1,-1,-1,-1,-1,-1,-1,-1,-1,-1,-1,-1],"split_conditions":[4.8340076E-1,1.1111719E-2,6.322979E-1,1.4883634E-2,3.2049674E-1,2.0434255E-2,9.656857E-3,8.4795445E-1,4.4366986E-1,4.8838224E-4,-1.3299505E-1,-1.2273591E-1,2.3683049E-1,5.864152E-2,8.4805614E-1,3.0244124E-1,3.0349553E-1,6.3055503E-1,-1.0944747E-1,6.063593E-3,-1.1463823E-1,-9.0989806E-2,1.1533481E-1,3.1007287E-1,1.3909235E-2,8.277711E-1,-7.554242E-2,6.343645E-2,-1.4705311E-1,4.302499E-2,-1.2264009E-1,1.5166499E-1,-8.198564E-2,-8.533319E-2,1.02569304E-1,6.4836435E-2,-1.6158395E-1,-6.435805E-2,1.20540515E-1,7.519158E-2,1.7775749E-1],"split_indices":[5,3,25,29,15,3,29,26,5,20,0,0,1,8,26,16,16,25,0,19,0,0,0,28,19,24,0,0,0,0,0,0,0,0,0,0,0,0,0,0,0],"split_type":[0,0,0,0,0,0,0,0,0,0,0,0,0,0,0,0,0,0,0,0,0,0,0,0,0,0,0,0,0,0,0,0,0,0,0,0,0,0,0,0,0],"sum_hessian":[1.0849259E3,6.704943E2,4.1443158E2,2.5782956E2,4.126648E2,3.2425037E2,9.018122E1,1.9801282E2,5.981673E1,4.085869E2,4.0778575E0,3.015912E2,2.2659172E1,4.7179794E1,4.3001427E1,6.2060493E1,1.3595232E2,5.5063393E1,4.7533374E0,4.052679E2,3.3190212E0,4.8585925E0,1.780058E1,2.7499882E1,1.9679913E1,4.056805E1,2.433377E0,7.578087E0,5.4482407E1,1.0813205E2,2.7820272E1,5.2772064E1,2.2913265E0,2.3006697E0,4.0296722E2,5.815127E0,2.1684753E1,1.2608727E0,1.841904E1,1.190473E1,2.8663322E1],"tree_param":{"num_deleted":"0","num_feature":"30","num_nodes":"41","size_leaf_vector":"1"}},{"base_weights":[1.345433E-1,-7.574656E-1,5.3107613E-1,8.8763076E-1,-1.0487361E0,6.9212383E-1,-3.8446653E-1,-8.034697E-2,1.3358445E0,8.472987E-1,-1.1238581E0,1.1326205E0,4.535447E-1,-1.2693778E-1,4.6037626E-1,-1.15973644E-1,1.2249561E-1,1.4379464E0,-5.6990225E-2,1.363838E-1,-6.552566E-2,-1.1900406E-1,-1.02544226E-1,-1.20399766E-1,1.1834502E0,8.159179E-1,-9.732209E-2,1.2004032E0,-1.09685235E-1,4.2078935E-2,1.5938364E-1,1.15197085E-1,-1.0606922E-1,1.24786615E-1,-1.0668634E-3,-1.2970753E-1,8.511276E-2,-7.991292E-2,5.3112578E-2,1.387598E-1,-8.366745E-2],"categories":[],"categories_nodes":[],"categories_segments":[],"categories_sizes":[],"default_left":[0,0,0,0,0,0,0,0,0,0,0,0,0,0,0,0,0,0,0,0,0,0,0,0,0,0,0,0,0,0,0,0,0,0,0,0,0,0,0,0,0],"id":12,"left_children":[1,3,5,7,9,11,13,15,17,19,21,23,25,-1,27,-1,-1,29,-1,-1,-1,-1,31,-1,33,35,37,39,-1,-1,-1,-1,-1,-1,-1,-1,-1,-1,-1,-1,-1],"loss_changes":[3.7203815E2,1.570199E2,1.0783351E2,2.181689E1,4.1218597E1,6.408685E1,8.351639E1,2.7701681E1,8.28307E0,1.0836573E1,1.7759827E1,2.8544678E1,8.105306E1,0E0,6.926145E1,0E0,0E0,3.8876495E0,0E0,0E0,0E0,0E0,2.4558899E1,0E0,1.6391052E1,2.040979E1,7.255769E1,1.7631298E1,0E0,0E0,0E0,0E0,0E0,0E0,0E0,0E0,0E0,0E0,0E0,0E0,0E0],"parents":[2147483647,0,0,1,1,2,2,3,3,4,4,5,5,6,6,7,7,8,8,9,9,10,10,11,11,12,12,14,14,17,17,22,22,24,24,25,25,26,26,27,27],"right_children":[2,4,6,8,10,12,14,16,18,20,22,24,26,-1,28,-1,-1,30,-1,-1,-1,-1,32,-1,34,36,38,40,-1,-1,-1,-1,-1,-1,-1,-1,-1,-1,-1,-1,-1],"split_conditions":[3.7403122E-1,3.9749834E-4,4.9914688E-1,9.446754E-2,1.022722E-4,6.2491756E-4,3.0994521E-2,1.0384008E-2,6.3061225E-1,6.063593E-3,6.322979E-1,1.4012358E-4,4.1823543E-4,-1.2693778E-1,5.3626904E-3,-1.15973644E-1,1.2249561E-1,8.736788E-1,-5.6990225E-2,1.363838E-1,-6.552566E-2,-1.1900406E-1,6.3237625E-1,-1.20399766E-1,5.69E9,2.010201E-4,6.895808E-1,1.44E9,-1.09685235E-1,4.2078935E-2,1.5938364E-1,1.15197085E-1,-1.0606922E-1,1.24786615E-1,-1.0668634E-3,-1.2970753E-1,8.511276E-2,-7.991292E-2,5.3112578E-2,1.387598E-1,-8.366745E-2],"split_indices":[4,20,5,19,23,11,9,3,25,19,25,23,20,0,27,0,0,24,0,0,0,0,25,0,23,2,17,23,0,0,0,0,0,0,0,0,0,0,0,0,0],"split_type":[0,0,0,0,0,0,0,0,0,0,0,0,0,0,0,0,0,0,0,0,0,0,0,0,0,0,0,0,0,0,0,0,0,0,0,0,0,0,0,0,0],"sum_hessian":[1.0475399E3,3.2180725E2,7.2573267E2,4.7790665E1,2.740166E2,6.1758496E2,1.0814769E2,1.56448965E1,3.2145767E1,9.659464E0,2.6435715E2,2.1434251E2,4.0324243E2,5.2330406E1,5.5817284E1,8.685592E0,6.9593053E0,3.0977085E1,1.1686845E0,7.3257155E0,2.333748E0,2.479587E2,1.639844E1,3.59742E0,2.107451E2,2.4265556E2,1.6058688E2,3.8147224E1,1.767006E1,5.0998597E0,2.5877226E1,6.925811E0,9.47263E0,1.9987308E2,1.0872027E1,2.8023875E0,2.3985318E2,7.56089E1,8.497798E1,3.5520744E1,2.6264782E0],"tree_param":{"num_deleted":"0","num_feature":"30","num_nodes":"41","size_leaf_vector":"1"}},{"base_weights":[8.492692E-2,6.0531664E-1,-7.5136274E-1,-2.8500938E-1,7.5681347E-1,-1.1594814E-1,-4.0963266E-2,9.8644775E-1,-1.22147314E-1,7.8984946E-1,-1.4092451E-1,-1.2522061E-1,5.1292235E-1,1.275021E0,-9.8464675E-2,1.306532E-1,8.685831E-1,8.602071E-1,-1.4203356E-1,-7.9741605E-2,1.4525923E-1,-1.2856512E-1,5.3156585E-2,-1.1837248E-1,8.9214616E-2,-1.0992364E-1,9.837873E-2],"categories":[],"categories_nodes":[],"categories_segments":[],"categories_sizes":[],"default_left":[0,0,0,0,0,0,0,0,0,0,0,0,0,0,0,0,0,0,0,0,0,0,0,0,0,0,0],"id":13,"left_children":[1,3,5,7,9,-1,11,13,-1,15,-1,-1,17,19,-1,21,23,25,-1,-1,-1,-1,-1,-1,-1,-1,-1],"loss_changes":[4.183827E2,8.0338974E1,1.0684389E2,1.0671379E2,3.8493713E1,0E0,9.296581E1,2.4274105E1,0E0,2.5749146E1,0E0,0E0,6.635541E1,1.4919571E1,0E0,3.3025017E1,2.3715912E1,2.2005108E1,0E0,0E0,0E0,0E0,0E0,0E0,0E0,0E0,0E0],"parents":[2147483647,0,0,1,1,2,2,3,3,4,4,6,6,7,7,9,9,12,12,13,13,15,15,16,16,17,17],"right_children":[2,4,6,8,10,-1,12,14,-1,16,-1,-1,18,20,-1,22,24,26,-1,-1,-1,-1,-1,-1,-1,-1,-1],"split_conditions":[2.245869E-3,3.735179E-1,3.763809E-1,1.523324E-1,3.2138157E-1,-1.1594814E-1,4.650465E-4,2.0569866E-3,-1.22147314E-1,1.5370109E-2,-1.4092451E-1,-1.2522061E-1,1.28E9,8.807828E-2,-9.8464675E-2,3.7741426E-1,1.2555886E-4,3.131068E-1,-1.4203356E-1,-7.9741605E-2,1.4525923E-1,-1.2856512E-1,5.3156585E-2,-1.1837248E-1,8.9214616E-2,-1.0992364E-1,9.837873E-2],"split_indices":[13,4,4,14,15,0,2,13,0,19,0,0,18,19,0,4,23,15,0,0,0,0,0,0,0,0,0],"split_type":[0,0,0,0,0,0,0,0,0,0,0,0,0,0,0,0,0,0,0,0,0,0,0,0,0,0,0],"sum_hessian":[9.572748E2,5.904276E2,3.668472E2,8.56008E1,5.048268E2,2.3219104E2,1.3465616E2,3.6261295E1,4.9339504E1,4.9849463E2,6.3321805E0,4.146297E1,9.3193184E1,3.2246593E1,4.014701E0,5.3754494E1,4.4474014E2,7.994263E1,1.325056E1,1.9939401E0,3.0252655E1,1.0885536E1,4.2868958E1,3.9304628E0,4.4080966E2,3.806012E0,7.613661E1],"tree_param":{"num_deleted":"0","num_feature":"30","num_nodes":"27","size_leaf_vector":"1"}},{"base_weights":[1.5157321E-1,4.9726057E-1,-7.035163E-1,8.623117E-1,2.2517632E-1,4.617878E-1,-1.0857198E0,-1.4471759E-1,9.0885544E-1,7.622993E-1,-1.523937E-1,1.0074816E0,-6.2062377E-1,-1.1583878E-1,7.5258785E-1,9.5264566E-1,-1.00047804E-1,-1.05822206E-1,9.003111E-1,-7.3810285E-1,7.316635E-1,1.2232195E0,-1.17395185E-1,8.0351375E-2,-1.1745422E-1,1.0387813E-1,-4.5056455E-2,1.1228409E-1,5.8332134E-2,9.7461455E-2,-1.3031189E-1,-1.2284894E-1,3.4377833E-3,-1.11251846E-1,9.090932E-2,1.3296047E-1,-6.759613E-2],"categories":[],"categories_nodes":[],"categories_segments":[],"categories_sizes":[],"default_left":[0,0,0,0,0,0,0,0,0,0,0,0,0,0,0,0,0,0,0,0,0,0,0,0,0,0,0,0,0,0,0,0,0,0,0,0,0],"id":14,"left_children":[1,3,5,7,9,11,13,-1,15,17,19,21,23,-1,25,27,-1,-1,29,31,33,35,-1,-1,-1,-1,-1,-1,-1,-1,-1,-1,-1,-1,-1,-1,-1],"loss_changes":[2.8445438E2,6.7625626E1,1.24456055E2,3.3987823E1,8.034854E1,4.2515717E1,2.97061E1,0E0,2.5917572E1,4.2960815E1,1.2206163E2,2.508931E1,2.133551E1,0E0,4.094367E0,1.640123E1,0E0,0E0,2.758442E1,5.369879E1,3.2817757E1,1.0675285E1,0E0,0E0,0E0,0E0,0E0,0E0,0E0,0E0,0E0,0E0,0E0,0E0,0E0,0E0,0E0],"parents":[2147483647,0,0,1,1,2,2,3,3,4,4,5,5,6,6,8,8,9,9,10,10,11,11,12,12,14,14,15,15,18,18,19,19,20,20,21,21],"right_children":[2,4,6,8,10,12,14,-1,16,18,20,22,24,-1,26,28,-1,-1,30,32,34,36,-1,-1,-1,-1,-1,-1,-1,-1,-1,-1,-1,-1,-1,-1,-1],"split_conditions":[4.9261445E-1,2.8328595E-3,3.5246985E-3,2.0721494E-4,6.228886E-4,3.0346748E-1,2.4912683E-2,-1.4471759E-1,2.1762715E-1,4.152874E-3,5.2207112E-2,3.2439697E-1,6.2491756E-4,-1.1583878E-1,1.2356595E-2,1.4527305E-3,-1.00047804E-1,-1.05822206E-1,8.481703E-1,3.0353564E-1,3.7798937E-4,2.1762864E-1,-1.17395185E-1,8.0351375E-2,-1.1745422E-1,1.0387813E-1,-4.5056455E-2,1.1228409E-1,5.8332134E-2,9.7461455E-2,-1.3031189E-1,-1.2284894E-1,3.4377833E-3,-1.11251846E-1,9.090932E-2,1.3296047E-1,-6.759613E-2],"split_indices":[5,0,0,23,11,16,3,0,6,3,19,28,11,0,19,11,0,0,26,16,23,6,0,0,0,0,0,0,0,0,0,0,0,0,0,0,0],"split_type":[0,0,0,0,0,0,0,0,0,0,0,0,0,0,0,0,0,0,0,0,0,0,0,0,0,0,0,0,0,0,0,0,0,0,0,0,0],"sum_hessian":[9.579487E2,6.827643E2,2.7518442E2,2.8971698E2,3.930473E2,6.786221E1,2.073222E2,4.5344205E0,2.8518256E2,1.6140216E2,2.3164516E2,4.520881E1,2.2653406E1,2.0015004E2,7.172166E0,2.7976822E2,5.414321E0,1.043382E1,1.5096834E2,1.3953203E2,9.211312E1,4.193961E1,3.2691977E0,6.0913086E0,1.6562098E1,6.0146885E0,1.1574775E0,1.8872011E2,9.104812E1,1.4712248E2,3.8458574E0,8.4627884E1,5.490415E1,7.159345E0,8.495377E1,4.0282925E1,1.6566868E0],"tree_param":{"num_deleted":"0","num_feature":"30","num_nodes":"37","size_leaf_vector":"1"}},{"base_weights":[1.7739977E-1,5.8975077E-1,-6.540979E-1,7.477548E-1,-2.6032862E-1,6.940882E-1,-8.7051123E-1,7.778695E-1,-1.2694912E-1,4.7757488E-1,-1.1842289E-1,9.594283E-1,-1.1482259E-1,5.9701264E-1,-1.0079672E0,8.00877E-1,-1.2718165E-1,8.452117E-1,-1.1082101E-1,-7.636671E-2,1.1856128E0,-1.2180704E-1,1.315182E0,4.5353195E-1,-1.0847558E0,3.513595E-2,8.781599E-2,-1.0057875E-1,1.120403E-1,-5.735737E-2,1.2679254E-1,-4.4560634E-2,1.4769122E-1,-8.045284E-2,1.22076236E-1,-1.1464437E-1,8.358268E-2],"categories":[],"categories_nodes":[],"categories_segments":[],"categories_sizes":[],"default_left":[0,0,0,0,0,0,0,0,0,0,0,0,0,0,0,0,0,0,0,0,0,0,0,0,0,0,0,0,0,0,0,0,0,0,0,0,0],"id":15,"left_children":[1,3,5,7,9,11,13,15,-1,17,-1,19,-1,21,23,25,-1,27,-1,-1,29,-1,31,33,35,-1,-1,-1,-1,-1,-1,-1,-1,-1,-1,-1,-1],"loss_changes":[3.2737308E2,8.605917E1,9.361986E1,3.4680267E1,7.0297356E1,2.416328E1,5.6436356E1,2.7110626E1,0E0,3.558775E1,0E0,1.7539387E1,0E0,3.5409187E1,2.9164337E1,1.7691437E1,0E0,2.6745148E1,0E0,0E0,6.73365E0,0E0,6.63113E0,1.5424249E1,3.025116E1,0E0,0E0,0E0,0E0,0E0,0E0,0E0,0E0,0E0,0E0,0E0,0E0],"parents":[2147483647,0,0,1,1,2,2,3,3,4,4,5,5,6,6,7,7,9,9,11,11,13,13,14,14,15,15,17,17,20,20,22,22,23,23,24,24],"right_children":[2,4,6,8,10,12,14,16,-1,18,-1,20,-1,22,24,26,-1,28,-1,-1,30,-1,32,34,36,-1,-1,-1,-1,-1,-1,-1,-1,-1,-1,-1,-1],"split_conditions":[5.3931004E-3,2.2684112E-3,4.4231178E-4,2.1763045E-1,5.1227026E-3,5.027108E-1,6.2945545E-1,3.2049674E-1,-1.2694912E-1,8.4808093E-1,-1.1842289E-1,3.736107E-1,-1.1482259E-1,7.916159E-1,6.063593E-3,8.500898E-3,-1.2718165E-1,8.480222E-1,-1.1082101E-1,-7.636671E-2,7.4917E-3,-1.2180704E-1,1.832763E-2,5.8041704E-3,8.1796296E-2,3.513595E-2,8.781599E-2,-1.0057875E-1,1.120403E-1,-5.735737E-2,1.2679254E-1,-4.4560634E-2,1.4769122E-1,-8.045284E-2,1.22076236E-1,-1.1464437E-1,8.358268E-2],"split_indices":[0,13,11,6,27,12,25,15,0,26,0,4,0,24,19,3,0,26,0,0,0,0,9,19,3,0,0,0,0,0,0,0,0,0,0,0,0],"split_type":[0,0,0,0,0,0,0,0,0,0,0,0,0,0,0,0,0,0,0,0,0,0,0,0,0,0,0,0,0,0,0,0,0,0,0,0,0],"sum_hessian":[9.505553E2,6.358233E2,3.1473196E2,5.3636926E2,9.945406E1,4.2922703E1,2.7180927E2,5.296905E2,6.6787696E0,5.5829872E1,4.3624195E1,3.83568E1,4.5659013E0,2.2706026E1,2.4910323E2,5.250158E2,4.674694E0,4.608084E1,9.74903E0,3.8992608E0,3.445754E1,6.0424185E0,1.6663609E1,1.1944948E1,2.3715828E2,7.864851E1,4.4636728E2,5.276977E0,4.0803864E1,1.0066582E0,3.3450882E1,1.1064943E0,1.5557114E1,4.488211E0,7.4567375E0,2.30559E2,6.5992727E0],"tree_param":{"num_deleted":"0","num_feature":"30","num_nodes":"37","size_leaf_vector":"1"}},{"base_weights":[1.502378E-1,7.6096284E-1,-2.5977856E-1,7.827618E-1,-8.8126004E-2,-7.990152E-1,4.5617825E-1,4.7276384E-1,9.0273714E-1,-3.1302464E-1,-1.12895206E-1,-8.442929E-1,6.869675E-1,-9.105814E-1,7.5348544E-1,-2.4867329E-1,9.414365E-1,-1.2143799E-1,1.2054613E-1,4.1769847E-1,-1.5489508E-1,1.6288176E-1,9.85373E-1,6.335985E-2,-1.3542835E-1,-1.0470482E-1,8.184922E-2,-1.3610868E-1,8.1387885E-2,9.6069254E-2,-7.2725736E-2,-6.516557E-2,6.3521475E-2,9.855573E-2,-1.5292104E-1,-1.5082945E-1,3.8001183E-2,1.2236058E-1,2.2941463E-2],"categories":[],"categories_nodes":[],"categories_segments":[],"categories_sizes":[],"default_left":[0,0,0,0,0,0,0,0,0,0,0,0,0,0,0,0,0,0,0,0,0,0,0,0,0,0,0,0,0,0,0,0,0,0,0,0,0,0,0],"id":16,"left_children":[1,3,5,7,-1,9,11,13,15,17,-1,19,21,23,25,27,29,-1,31,33,-1,35,37,-1,-1,-1,-1,-1,-1,-1,-1,-1,-1,-1,-1,-1,-1,-1,-1],"loss_changes":[2.1906223E2,1.3954941E1,2.0301685E2,1.2079437E1,0E0,4.733217E1,6.910196E1,4.0682426E1,1.1541473E1,4.8718792E1,0E0,3.243241E1,2.9917946E1,1.4036824E1,1.16917E1,1.3637114E1,9.136261E0,0E0,3.480313E1,1.8626492E1,0E0,2.7470903E1,2.1555733E1,0E0,0E0,0E0,0E0,0E0,0E0,0E0,0E0,0E0,0E0,0E0,0E0,0E0,0E0,0E0,0E0],"parents":[2147483647,0,0,1,1,2,2,3,3,5,5,6,6,7,7,8,8,9,9,11,11,12,12,13,13,14,14,15,15,16,16,18,18,19,19,21,21,22,22],"right_children":[2,4,6,8,-1,10,12,14,16,18,-1,20,22,24,26,28,30,-1,32,34,-1,36,38,-1,-1,-1,-1,-1,-1,-1,-1,-1,-1,-1,-1,-1,-1,-1,-1],"split_conditions":[4.5000732E-1,5.8101286E-4,3.786176E-1,8.478144E-1,-8.8126004E-2,4.4843025E-4,3.590359E-4,3.7648937E-1,1.732998E-2,1.0017996E-2,-1.12895206E-1,8.4784245E-1,2.0124257E-2,2.8405344E-4,2.99E8,2.1761435E-1,6.8961465E-1,-1.2143799E-1,1.9418415E-2,1.0935971E-2,-1.5489508E-1,6.78056E-1,1.55E9,6.335985E-2,-1.3542835E-1,-1.0470482E-1,8.184922E-2,-1.3610868E-1,8.1387885E-2,9.6069254E-2,-7.2725736E-2,-6.516557E-2,6.3521475E-2,9.855573E-2,-1.5292104E-1,-1.5082945E-1,3.8001183E-2,1.2236058E-1,2.2941463E-2],"split_indices":[5,20,4,26,0,20,2,4,19,8,0,26,8,11,23,6,17,0,19,8,0,24,23,0,0,0,0,0,0,0,0,0,0,0,0,0,0,0,0],"split_type":[0,0,0,0,0,0,0,0,0,0,0,0,0,0,0,0,0,0,0,0,0,0,0,0,0,0,0,0,0,0,0,0,0,0,0,0,0,0,0],"sum_hessian":[8.712449E2,3.4927823E2,5.219666E2,3.4573563E2,3.5426009E0,2.9759512E2,2.243715E2,9.922762E1,2.4650801E2,1.2191466E2,1.7568045E2,3.301563E1,1.9135588E2,1.59823E1,8.324532E1,7.6629624E0,2.3884505E2,3.842686E1,8.34878E1,1.2121451E1,2.0894178E1,7.054692E1,1.2080896E2,3.3762505E0,1.260605E1,1.8479489E0,8.139737E1,3.4691253E0,4.193837E0,2.3695921E2,1.885837E0,3.3177063E1,5.031074E1,1.0148875E1,1.9725759E0,6.744419E0,6.38025E1,9.091939E1,2.9889566E1],"tree_param":{"num_deleted":"0","num_feature":"30","num_nodes":"39","size_leaf_vector":"1"}},{"base_weights":[1.9419672E-1,-5.0380254E-1,5.565553E-1,4.7770202E-1,-8.763891E-1,7.356059E-1,6.7707494E-2,-1.2499919E-1,9.4871855E-1,-1.0364865E0,-8.301621E-3,7.894389E-1,-3.616167E-1,-4.7989976E-1,6.299426E-1,1.0488873E0,-7.76616E-2,-1.1192334E-1,-3.5480523E-1,-1.0956124E-1,1.0937392E0,4.7030422E-1,9.421749E-1,1.0643502E-1,-1.24432944E-1,-1.1529648E0,1.7687693E-1,-1.21544495E-1,8.624079E-1,4.4100634E-3,1.2203503E-1,9.876146E-2,-1.0600219E-1,1.383123E-1,-6.0394187E-2,-7.342995E-2,7.7140994E-2,1.0049099E-1,1.216486E-2,-1.3851725E-1,7.146745E-2,-6.1984565E-2,1.1885899E-1,1.1489999E-1,-2.7716741E-2],"categories":[],"categories_nodes":[],"categories_segments":[],"categories_sizes":[],"default_left":[0,0,0,0,0,0,0,0,0,0,0,0,0,0,0,0,0,0,0,0,0,0,0,0,0,0,0,0,0,0,0,0,0,0,0,0,0,0,0,0,0,0,0,0,0],"id":17,"left_children":[1,3,5,7,9,11,13,-1,15,17,19,21,23,25,27,29,-1,-1,31,-1,33,35,37,-1,-1,39,41,-1,43,-1,-1,-1,-1,-1,-1,-1,-1,-1,-1,-1,-1,-1,-1,-1,-1],"loss_changes":[2.1833723E2,1.0882385E2,4.9593567E1,6.9545074E1,2.982779E1,2.5103455E1,4.8142567E1,0E0,1.3035473E1,9.4319E0,4.4879654E1,1.8442398E1,2.8825417E1,3.5486473E1,3.514928E1,1.0785637E1,0E0,0E0,2.3444157E1,0E0,1.0812683E1,4.913645E1,1.3458008E1,0E0,0E0,1.9091568E1,3.5244637E1,0E0,2.3367249E1,0E0,0E0,0E0,0E0,0E0,0E0,0E0,0E0,0E0,0E0,0E0,0E0,0E0,0E0,0E0,0E0],"parents":[2147483647,0,0,1,1,2,2,3,3,4,4,5,5,6,6,8,8,9,9,10,10,11,11,12,12,13,13,14,14,15,15,18,18,20,20,21,21,22,22,25,25,26,26,28,28],"right_children":[2,4,6,8,10,12,14,-1,16,18,20,22,24,26,28,30,-1,-1,32,-1,34,36,38,-1,-1,40,42,-1,44,-1,-1,-1,-1,-1,-1,-1,-1,-1,-1,-1,-1,-1,-1,-1,-1],"split_conditions":[8.384173E-3,4.458636E-1,4.277674E-3,1.1592945E-3,3.177272E-2,2.1762864E-1,1.5148779E-2,-1.2499919E-1,6.3061154E-1,6.322979E-1,3.169642E-1,4.490449E-4,5.843385E-4,1.0017996E-2,1.7284151E-4,8.4789515E-1,-7.76616E-2,-1.1192334E-1,6.3237625E-1,-1.0956124E-1,1.0119208E-4,1.374169E-2,9.5031595E-1,1.0643502E-1,-1.24432944E-1,1.2125011E-1,4.0565327E-2,-1.21544495E-1,1.53E9,4.4100634E-3,1.2203503E-1,9.876146E-2,-1.0600219E-1,1.383123E-1,-6.0394187E-2,-7.342995E-2,7.7140994E-2,1.0049099E-1,1.216486E-2,-1.3851725E-1,7.146745E-2,-6.1984565E-2,1.1885899E-1,1.1489999E-1,-2.7716741E-2],"split_indices":[3,5,0,7,8,6,3,0,25,25,15,2,11,8,7,26,0,0,25,0,7,3,24,0,0,19,19,0,7,0,0,0,0,0,0,0,0,0,0,0,0,0,0,0,0],"split_type":[0,0,0,0,0,0,0,0,0,0,0,0,0,0,0,0,0,0,0,0,0,0,0,0,0,0,0,0,0,0,0,0,0,0,0,0,0,0,0,0,0,0,0,0,0],"sum_hessian":[8.590282E2,2.9329095E2,5.6573724E2,8.0545555E1,2.1274538E2,4.1333514E2,1.5240211E2,1.6546217E1,6.399934E1,1.7929147E2,3.3453903E1,3.945389E2,1.8796227E1,7.735377E1,7.504835E1,6.1228687E1,2.7706556E0,1.5873898E2,2.0552488E1,1.6845364E1,1.6608541E1,1.3034584E2,2.6419308E2,7.029297E0,1.176693E1,3.745692E1,3.989685E1,7.4500866E0,6.759827E1,9.291889E0,5.1936794E1,6.8025556E0,1.3749932E1,1.4506383E1,2.1021583E0,2.5490635E1,1.0485521E2,2.4501085E2,1.9182224E1,3.3774345E1,3.6825762E0,2.2753311E1,1.714354E1,5.4001003E1,1.35972595E1],"tree_param":{"num_deleted":"0","num_feature":"30","num_nodes":"45","size_leaf_vector":"1"}},{"base_weights":[2.3622984E-1,5.4811764E-1,-5.163374E-1,1.671791E-1,7.806974E-1,-9.7986203E-1,3.701828E-1,8.704616E-1,-2.7675974E-1,7.9871744E-1,-9.533014E-2,7.800249E-1,-1.0891761E-1,6.6619474E-1,-1.1689877E-1,-6.790519E-1,1.0718955E0,-7.9549915E-1,9.3906343E-1,8.4412456E-1,1.04576856E-1,1.18958175E-1,-5.4631185E-2,1.8515667E-1,1.376974E-1,7.1805105E-2,-1.4321171E-1,1.1217588E-1,-7.8488655E-2,-1.6606277E-2,-1.2578242E-1,1.3933064E-1,-9.910037E-2,-1.0841508E-1,8.601191E-2,-1.666156E-1,8.034879E-2,-1.1332357E-1,6.812755E-2],"categories":[],"categories_nodes":[],"categories_segments":[],"categories_sizes":[],"default_left":[0,0,0,0,0,0,0,0,0,0,0,0,0,0,0,0,0,0,0,0,0,0,0,0,0,0,0,0,0,0,0,0,0,0,0,0,0,0,0],"id":18,"left_children":[1,3,5,7,9,11,13,15,17,19,-1,21,-1,23,-1,25,27,29,31,33,35,-1,-1,37,-1,-1,-1,-1,-1,-1,-1,-1,-1,-1,-1,-1,-1,-1,-1],"loss_changes":[1.984624E2,5.2637695E1,1.02662834E2,7.1943245E1,1.30896E1,3.3142822E1,4.102435E1,2.925174E1,9.0946594E1,1.1405258E1,0E0,7.1251216E0,0E0,2.4766026E1,0E0,1.4123732E1,9.12928E0,2.8827625E1,4.0752857E1,1.2493469E1,3.342409E1,0E0,0E0,3.1892372E1,0E0,0E0,0E0,0E0,0E0,0E0,0E0,0E0,0E0,0E0,0E0,0E0,0E0,0E0,0E0],"parents":[2147483647,0,0,1,1,2,2,3,3,4,4,5,5,6,6,7,7,8,8,9,9,11,11,13,13,15,15,16,16,17,17,18,18,19,19,20,20,23,23],"right_children":[2,4,6,8,10,12,14,16,18,20,-1,22,-1,24,-1,26,28,30,32,34,36,-1,-1,38,-1,-1,-1,-1,-1,-1,-1,-1,-1,-1,-1,-1,-1,-1,-1],"split_conditions":[2.2684112E-3,1.0929336E-2,6.3163584E-1,3.9959452E-4,3.234377E-1,1.022722E-4,2.62E9,2.1744043E-1,4.8838224E-4,6.1510666E-3,-9.533014E-2,6.063593E-3,-1.0891761E-1,2.405714E-3,-1.1689877E-1,2.8405344E-4,8.4808093E-1,3.033522E-1,7.852049E-4,1.480148E-4,4.7797877E-3,1.18958175E-1,-5.4631185E-2,1.3100612E-2,1.376974E-1,7.1805105E-2,-1.4321171E-1,1.1217588E-1,-7.8488655E-2,-1.6606277E-2,-1.2578242E-1,1.3933064E-1,-9.910037E-2,-1.0841508E-1,8.601191E-2,-1.666156E-1,8.034879E-2,-1.1332357E-1,6.812755E-2],"split_indices":[13,3,25,20,15,23,23,6,20,0,0,19,0,13,0,11,26,16,11,2,10,0,0,3,0,0,0,0,0,0,0,0,0,0,0,0,0,0,0],"split_type":[0,0,0,0,0,0,0,0,0,0,0,0,0,0,0,0,0,0,0,0,0,0,0,0,0,0,0,0,0,0,0,0,0,0,0,0,0,0,0],"sum_hessian":[8.411293E2,5.950606E2,2.4606871E2,2.2688574E2,3.6817484E2,1.6144514E2,8.462356E1,8.705413E1,1.3983162E2,3.6545572E2,2.7191277E0,8.723945E0,1.527212E2,7.192529E1,1.2698264E1,9.469399E0,7.7584724E1,9.849813E1,4.133349E1,3.4261166E2,2.2844053E1,6.823229E0,1.9007162E0,4.439848E1,2.7526814E1,3.349089E0,6.120311E0,7.632671E1,1.2580132E0,4.2861866E1,5.563627E1,3.390915E1,7.424337E0,1.7197224E0,3.4089194E2,5.6815763E0,1.7162476E1,1.1437067E1,3.2961414E1],"tree_param":{"num_deleted":"0","num_feature":"30","num_nodes":"39","size_leaf_vector":"1"}},{"base_weights":[2.32813E-1,6.5341395E-1,-2.940133E-1,3.2219625E-1,8.773037E-1,-5.074718E-1,7.0696354E-1,7.008811E-1,-3.4304997E-1,1.1375352E0,5.672076E-1,8.4334E-1,-6.373269E-1,-1.7807066E-1,1.2365897E0,8.453173E-1,-1.1698755E-1,-1.4002796E0,5.255267E-1,-8.1782795E-2,1.1731594E0,-4.66071E-1,8.353708E-1,1.1305926E0,-9.9680685E-2,-7.675449E-1,5.4494536E-1,-1.0663097E-1,1.4834723E-1,-5.6510117E-2,1.332196E0,-1.615367E-1,9.456982E-2,-1.6546093E-1,3.3760928E-2,8.507617E-2,-1.12740375E-1,1.20791055E-1,-7.047511E-2,9.2151314E-2,-1.4933462E-1,9.068193E-2,-1.4962648E-1,1.2679099E-1,-4.5823675E-2,4.9083915E-2,-8.940011E-2,-1.3098289E-1,1.0563699E-1,4.9495652E-2,1.4076409E-1],"categories":[],"categories_nodes":[],"categories_segments":[],"categories_sizes":[],"default_left":[0,0,0,0,0,0,0,0,0,0,0,0,0,0,0,0,0,0,0,0,0,0,0,0,0,0,0,0,0,0,0,0,0,0,0,0,0,0,0,0,0,0,0,0,0,0,0,0,0,0,0],"id":19,"left_children":[1,3,5,7,9,11,13,15,17,19,21,23,25,27,29,31,-1,33,35,-1,37,39,41,43,-1,45,47,-1,-1,-1,49,-1,-1,-1,-1,-1,-1,-1,-1,-1,-1,-1,-1,-1,-1,-1,-1,-1,-1,-1,-1],"loss_changes":[1.7590367E2,3.214377E1,7.614849E1,4.6093697E1,1.9853867E1,5.231977E1,2.991792E1,3.3332134E1,6.3017708E1,1.1704193E1,3.5011555E1,1.6251978E1,4.2043846E1,4.049105E1,8.325996E0,2.9950012E1,0E0,1.4719379E1,2.248027E1,0E0,1.0759552E1,4.0868866E1,1.9173813E1,6.3639965E0,0E0,3.9377E1,2.9067085E1,0E0,0E0,0E0,1.0191879E0,0E0,0E0,0E0,0E0,0E0,0E0,0E0,0E0,0E0,0E0,0E0,0E0,0E0,0E0,0E0,0E0,0E0,0E0,0E0,0E0],"parents":[2147483647,0,0,1,1,2,2,3,3,4,4,5,5,6,6,7,7,8,8,9,9,10,10,11,11,12,12,13,13,14,14,15,15,17,17,18,18,20,20,21,21,22,22,23,23,25,25,26,26,30,30],"right_children":[2,4,6,8,10,12,14,16,18,20,22,24,26,28,30,32,-1,34,36,-1,38,40,42,44,-1,46,48,-1,-1,-1,50,-1,-1,-1,-1,-1,-1,-1,-1,-1,-1,-1,-1,-1,-1,-1,-1,-1,-1,-1,-1],"split_conditions":[3.0344865E-1,4.390439E-4,3.0380878E-1,8.4797245E-1,8.36E8,8.474108E-1,6.3133657E-1,5.618888E-3,1.4202672E-3,1.2211213E-4,3.786176E-1,2.4205748E-2,6.348259E-1,7.7464974E-1,3.590359E-4,1.4503215E-1,-1.1698755E-1,3.0344597E-1,6.305859E-1,-8.1782795E-2,2.1762587E-1,3.4724022E-4,8.10081E-4,3.6782594E-3,-9.9680685E-2,1.1152449E-4,1.8700758E-2,-1.0663097E-1,1.4834723E-1,-5.6510117E-2,4.6604805E-4,-1.615367E-1,9.456982E-2,-1.6546093E-1,3.3760928E-2,8.507617E-2,-1.12740375E-1,1.20791055E-1,-7.047511E-2,9.2151314E-2,-1.4933462E-1,9.068193E-2,-1.4962648E-1,1.2679099E-1,-4.5823675E-2,4.9083915E-2,-8.940011E-2,-1.3098289E-1,1.0563699E-1,4.9495652E-2,1.4076409E-1],"split_indices":[16,2,16,26,23,26,25,10,11,21,4,9,25,12,2,12,0,16,25,0,6,20,2,10,0,23,19,0,0,0,20,0,0,0,0,0,0,0,0,0,0,0,0,0,0,0,0,0,0,0,0],"split_type":[0,0,0,0,0,0,0,0,0,0,0,0,0,0,0,0,0,0,0,0,0,0,0,0,0,0,0,0,0,0,0,0,0,0,0,0,0,0,0,0,0,0,0,0,0,0,0,0,0,0,0],"sum_hessian":[7.9011383E2,4.390834E2,3.5103043E2,1.7906168E2,2.6002173E2,2.9014334E2,6.088708E1,1.1403897E2,6.50227E1,1.384763E2,1.21545425E2,2.4481956E1,2.6566138E2,2.3292164E1,3.7594917E1,1.06883095E2,7.1558766E0,2.8774334E1,3.6248367E1,1.691968E0,1.3678433E2,2.4740402E1,9.680502E1,2.1843338E1,2.6386192E0,2.3993591E2,2.5725483E1,1.5645022E1,7.6471415E0,1.3995287E0,3.619539E1,3.006187E0,1.0387691E2,2.5184565E1,3.5897708E0,3.1099709E1,5.1486588E0,1.349997E2,1.784641E0,1.0612099E1,1.4128304E1,9.511264E1,1.6923862E0,2.0477505E1,1.3658329E0,2.1383423E1,2.1855249E2,4.8854027E0,2.084008E1,4.241944E0,3.1953445E1],"tree_param":{"num_deleted":"0","num_feature":"30","num_nodes":"51","size_leaf_vector":"1"}},{"base_weights":[2.1017459E-1,6.055128E-1,-3.087292E-1,-7.2870326E-1,6.9937795E-1,7.968788E-1,-7.0290446E-1,7.151859E-2,-1.1019509E-1,3.551927E-1,8.5933447E-1,9.9170285E-1,-5.198364E-1,-9.5474243E-1,1.0921091E-1,-1.5124686E-1,6.085327E-1,8.786927E-1,-1.24943785E-1,-1.0149827E-1,1.0546446E0,6.901031E-2,-1.1242399E-1,-7.065584E-2,-1.1196187E0,-1.0216411E-1,6.779493E-1,7.7559225E-2,-8.000571E-2,9.004158E-2,-9.764929E-2,-6.34273E-2,1.100883E-1,-1.0434729E-1,6.516626E-2,1.9334596E-2,-1.1940674E-1,-7.936301E-2,9.0408914E-2],"categories":[],"categories_nodes":[],"categories_segments":[],"categories_sizes":[],"default_left":[0,0,0,0,0,0,0,0,0,0,0,0,0,0,0,0,0,0,0,0,0,0,0,0,0,0,0,0,0,0,0,0,0,0,0,0,0,0,0],"id":20,"left_children":[1,3,5,7,9,11,13,-1,-1,15,17,19,21,23,25,-1,27,29,-1,-1,31,-1,-1,33,35,-1,37,-1,-1,-1,-1,-1,-1,-1,-1,-1,-1,-1,-1],"loss_changes":[1.5616824E2,5.508629E1,1.448155E2,1.739676E1,2.1651657E1,2.3501915E1,5.0138145E1,0E0,0E0,6.415865E1,1.3407776E1,1.1865517E1,1.0767821E1,2.7034058E1,3.97047E1,0E0,2.886792E1,1.2773926E1,0E0,0E0,7.30291E0,0E0,0E0,2.3463953E1,1.5817261E1,0E0,1.5027481E1,0E0,0E0,0E0,0E0,0E0,0E0,0E0,0E0,0E0,0E0,0E0,0E0],"parents":[2147483647,0,0,1,1,2,2,3,3,4,4,5,5,6,6,9,9,10,10,11,11,12,12,13,13,14,14,16,16,17,17,20,20,23,23,24,24,26,26],"right_children":[2,4,6,8,10,12,14,-1,-1,16,18,20,22,24,26,-1,28,30,-1,-1,32,-1,-1,34,36,-1,38,-1,-1,-1,-1,-1,-1,-1,-1,-1,-1,-1,-1],"split_conditions":[3.0344865E-1,4.740149E-3,1.6307783E-1,1.3918503E-1,1.0929336E-2,6.8949056E-1,6.1266396E-2,7.151859E-2,-1.1019509E-1,5.583763E-1,1.5874168E-2,1.1147099E-2,3.1268525E-1,8.602418E-3,4.490449E-4,-1.5124686E-1,3.2231024E-1,1.9640976E-1,-1.24943785E-1,-1.0149827E-1,3.43831E-2,6.901031E-2,-1.1242399E-1,3.2732338E-1,3.1268525E-1,-1.0216411E-1,8.595738E-3,7.7559225E-2,-8.000571E-2,9.004158E-2,-9.764929E-2,-6.34273E-2,1.100883E-1,-1.0434729E-1,6.516626E-2,1.9334596E-2,-1.1940674E-1,-7.936301E-2,9.0408914E-2],"split_indices":[16,3,14,14,3,17,9,0,0,24,29,19,24,19,2,0,28,14,0,0,1,0,0,12,24,0,3,0,0,0,0,0,0,0,0,0,0,0,0],"split_type":[0,0,0,0,0,0,0,0,0,0,0,0,0,0,0,0,0,0,0,0,0,0,0,0,0,0,0,0,0,0,0,0,0,0,0,0,0,0,0],"sum_hessian":[7.574446E2,4.2971954E2,3.2772504E2,2.7355612E1,4.0236392E2,8.559616E1,2.4212888E2,5.24261E0,2.2113003E1,1.297076E2,2.7265634E2,7.499361E1,1.0602548E1,1.845488E2,5.758007E1,1.4305444E1,1.1540216E2,2.7133218E2,1.3241569E0,1.3607031E0,7.3632904E1,3.4375072E0,7.1650405E0,2.9456501E1,1.550923E2,1.8735214E1,3.8844856E1,1.03970024E2,1.1432137E1,2.692092E2,2.1229815E0,1.2843803E0,7.2348526E1,1.2172871E1,1.728363E1,8.150868E0,1.4694144E2,4.5056844E0,3.4339172E1],"tree_param":{"num_deleted":"0","num_feature":"30","num_nodes":"39","size_leaf_vector":"1"}},{"base_weights":[2.5661945E-1,-1.0744857E-1,6.597175E-1,9.4412404E-1,-3.5358775E-1,-1.9379185E-1,6.996651E-1,1.0680891E0,-1.16420045E-1,-9.574271E-1,3.5410754E-2,7.3841137E-1,-9.988557E-2,-8.8445865E-2,1.1399093E0,3.9726445E-1,-1.0815581E-1,1.1195811E0,-1.3806571E-1,8.460341E-1,3.208049E-1,-2.674773E-3,1.20424055E-1,-6.954279E-2,9.826795E-2,1.3336928E-1,-9.451575E-2,2.7467677E-2,-7.3642895E-2,8.8715486E-2,-1.36941E-1,6.96774E-2,-1.4273672E-1],"categories":[],"categories_nodes":[],"categories_segments":[],"categories_sizes":[],"default_left":[0,0,0,0,0,0,0,0,0,0,0,0,0,0,0,0,0,0,0,0,0,0,0,0,0,0,0,0,0,0,0,0,0],"id":21,"left_children":[1,3,5,7,9,-1,11,13,-1,15,17,19,-1,-1,21,23,-1,25,27,29,31,-1,-1,-1,-1,-1,-1,-1,-1,-1,-1,-1,-1],"loss_changes":[1.1021567E2,1.031204E2,3.9677185E1,2.2251335E1,7.575102E1,0E0,2.4660446E1,1.2178383E1,0E0,2.20999E1,3.7528168E1,1.4989487E1,0E0,0E0,5.375763E0,9.084652E0,0E0,1.468557E1,4.2976044E1,2.7350998E1,5.0649746E1,0E0,0E0,0E0,0E0,0E0,0E0,0E0,0E0,0E0,0E0,0E0,0E0],"parents":[2147483647,0,0,1,1,2,2,3,3,4,4,6,6,7,7,9,9,10,10,11,11,14,14,15,15,17,17,18,18,19,19,20,20],"right_children":[2,4,6,8,10,-1,12,14,-1,16,18,20,-1,-1,22,24,-1,26,28,30,32,-1,-1,-1,-1,-1,-1,-1,-1,-1,-1,-1,-1],"split_conditions":[3.790426E-1,1.5330158E-1,5.599048E-3,8.480826E-1,3.7341166E-1,-1.9379185E-1,1.9413425E-1,2.9130725E-2,-1.16420045E-1,6.063593E-3,3.7535632E-4,6.31952E-1,-9.988557E-2,-8.8445865E-2,5.4375944E-4,8.4813505E-1,-1.0815581E-1,6.883156E-3,4.3481677E-3,8.4826946E-1,3.2071637E-3,-2.674773E-3,1.20424055E-1,-6.954279E-2,9.826795E-2,1.3336928E-1,-9.451575E-2,2.7467677E-2,-7.3642895E-2,8.8715486E-2,-1.36941E-1,6.96774E-2,-1.4273672E-1],"split_indices":[4,14,9,26,4,0,14,19,0,19,11,25,0,0,11,26,0,3,0,26,0,0,0,0,0,0,0,0,0,0,0,0,0],"split_type":[0,0,0,0,0,0,0,0,0,0,0,0,0,0,0,0,0,0,0,0,0,0,0,0,0,0,0,0,0,0,0,0,0],"sum_hessian":[7.480515E2,3.9382532E2,3.5422623E2,7.3621796E1,3.2020352E2,3.925776E0,3.5030045E2,7.046537E1,3.156426E0,1.2431218E2,1.9589133E2,3.4359302E2,6.7074246E0,1.6971002E0,6.8768265E1,1.0065258E1,1.1424692E2,2.5516167E1,1.7037517E2,2.7155725E2,7.203577E1,3.6548867E0,6.511338E1,3.3801932E0,6.6850643E0,2.3760363E1,1.7558053E0,1.0146674E2,6.890842E1,2.67786E2,3.7712402E0,6.027552E1,1.1760245E1],"tree_param":{"num_deleted":"0","num_feature":"30","num_nodes":"33","size_leaf_vector":"1"}},{"base_weights":[2.1609147E-1,-7.431797E-1,4.4403505E-1,-8.9920026E-1,7.831027E-1,7.598283E-2,6.817451E-1,3.1279188E-1,-1.0143026E0,7.3745064E-2,9.805204E-2,5.613456E-1,-6.8439543E-1,7.350184E-1,-1.255609E-1,-7.058283E-2,8.9768045E-2,2.5750315E-1,-1.07364394E-1,-5.248308E-2,5.2460875E-2,-2.4388878E-1,1.0407995E0,2.2351322E-1,-1.3849769E0,7.5978947E-1,-1.2995744E-1,-5.6823414E-2,7.012191E-2,4.1842736E-2,-1.7194767E-1,-1.03698745E-1,1.1242185E-1,-7.948033E-2,8.205166E-2,-2.0039201E-1,-1.0974642E-1,-1.9239485E-2,8.1090204E-2],"categories":[],"categories_nodes":[],"categories_segments":[],"categories_sizes":[],"default_left":[0,0,0,0,0,0,0,0,0,0,0,0,0,0,0,0,0,0,0,0,0,0,0,0,0,0,0,0,0,0,0,0,0,0,0,0,0,0,0],"id":22,"left_children":[1,3,5,7,9,11,13,15,17,19,-1,21,23,25,-1,-1,-1,27,-1,-1,-1,29,31,33,35,37,-1,-1,-1,-1,-1,-1,-1,-1,-1,-1,-1,-1,-1],"loss_changes":[1.5261488E2,3.3359642E1,4.913233E1,1.7746315E1,1.7476997E0,8.3100784E1,3.7109787E1,8.516323E0,9.043007E0,1.9282606E0,0E0,5.350285E1,5.6478245E1,1.8797699E1,0E0,0E0,0E0,3.2253766E0,0E0,0E0,0E0,5.3088924E1,1.7310143E1,2.5604973E1,4.4721375E0,1.642331E1,0E0,0E0,0E0,0E0,0E0,0E0,0E0,0E0,0E0,0E0,0E0,0E0,0E0],"parents":[2147483647,0,0,1,1,2,2,3,3,4,4,5,5,6,6,7,7,8,8,9,9,11,11,12,12,13,13,17,17,21,21,22,22,23,23,24,24,25,25],"right_children":[2,4,6,8,10,12,14,16,18,20,-1,22,24,26,-1,-1,-1,28,-1,-1,-1,30,32,34,36,38,-1,-1,-1,-1,-1,-1,-1,-1,-1,-1,-1,-1,-1],"split_conditions":[3.7341166E-1,1.3654903E-1,4.390439E-4,6.063593E-3,7.67242E-3,6.891414E-1,3.1843755E-1,5.8041704E-3,3.4100327E-1,3.3094564E-3,9.805204E-2,3.7415886E-1,4.89E9,9.640964E-4,-1.255609E-1,-7.058283E-2,8.9768045E-2,3.7177548E-1,-1.07364394E-1,-5.248308E-2,5.2460875E-2,3.1411335E-1,9.382665E-3,3.8353616E-1,2.2069276E-3,1.1701863E-2,-1.2995744E-1,-5.6823414E-2,7.012191E-2,4.1842736E-2,-1.7194767E-1,-1.03698745E-1,1.1242185E-1,-7.948033E-2,8.205166E-2,-2.0039201E-1,-1.0974642E-1,-1.9239485E-2,8.1090204E-2],"split_indices":[4,19,2,19,8,17,15,19,5,7,0,12,22,2,0,0,0,4,0,0,0,15,9,4,13,19,0,0,0,0,0,0,0,0,0,0,0,0,0],"split_type":[0,0,0,0,0,0,0,0,0,0,0,0,0,0,0,0,0,0,0,0,0,0,0,0,0,0,0,0,0,0,0,0,0,0,0,0,0,0,0],"sum_hessian":[6.929378E2,1.3217511E2,5.6076263E2,1.206624E2,1.1512713E1,2.2108727E2,3.396754E2,1.0167437E1,1.10494965E2,3.1045601E0,8.408154E0,1.3526729E2,8.581997E1,3.31793E2,7.8824058E0,3.5577843E0,6.609652E0,4.6280336E0,1.0586693E2,1.1928263E0,1.911734E0,5.084935E1,8.441794E1,3.7972263E1,4.7847702E1,3.2904007E2,2.752929E0,1.4214747E0,3.2065592E0,3.6085346E1,1.4764004E1,2.3759503E0,8.204199E1,1.3789201E1,2.4183064E1,1.138942E1,3.6458282E1,1.6481186E1,3.1255887E2],"tree_param":{"num_deleted":"0","num_feature":"30","num_nodes":"39","size_leaf_vector":"1"}},{"base_weights":[1.9856466E-1,4.5070395E-1,-3.1286526E-1,5.805603E-1,-5.5813316E-2,7.3317957E-1,-8.406139E-1,7.943123E-1,2.79302E-1,-1.3523482E-1,3.041042E-1,8.6942095E-1,-1.2858029E-1,-9.097148E-1,8.369084E-2,5.377409E-1,1.0499506E0,-3.427255E-1,5.40748E-1,-9.496815E-2,5.3093356E-1,-6.792635E-2,1.0320708E0,-1.0186884E0,2.8493795E-1,-1.481664E-1,6.520852E-2,8.2722396E-2,1.5308681E-1,-1.7330849E-1,2.622827E-2,6.2878355E-2,-1.1780472E-1,-1.19147E-1,6.830918E-2,-1.18274346E-1,7.634494E-2,1.10797204E-1,-8.614284E-2,6.2299473E-4,-1.1247336E-1,-8.796517E-2,1.1389867E-1],"categories":[],"categories_nodes":[],"categories_segments":[],"categories_sizes":[],"default_left":[0,0,0,0,0,0,0,0,0,0,0,0,0,0,0,0,0,0,0,0,0,0,0,0,0,0,0,0,0,0,0,0,0,0,0,0,0,0,0,0,0,0,0],"id":23,"left_children":[1,3,5,7,9,11,13,15,17,-1,19,21,-1,23,-1,25,27,29,31,-1,33,35,37,39,41,-1,-1,-1,-1,-1,-1,-1,-1,-1,-1,-1,-1,-1,-1,-1,-1,-1,-1],"loss_changes":[8.9424065E1,3.0573196E1,1.2790031E2,2.3341064E1,4.5841156E1,2.369421E1,1.9309105E1,1.2970886E1,2.5803082E1,0E0,2.2947796E1,1.1463795E1,0E0,1.9890549E1,0E0,2.7653404E1,8.776634E0,4.0867817E1,1.8259605E1,0E0,1.9084324E1,1.3723837E1,1.1022675E1,1.483522E1,1.5890562E1,0E0,0E0,0E0,0E0,0E0,0E0,0E0,0E0,0E0,0E0,0E0,0E0,0E0,0E0,0E0,0E0,0E0,0E0],"parents":[2147483647,0,0,1,1,2,2,3,3,4,4,5,5,6,6,7,7,8,8,10,10,11,11,13,13,15,15,16,16,17,17,18,18,20,20,21,21,22,22,23,23,24,24],"right_children":[2,4,6,8,10,12,14,16,18,-1,20,22,-1,24,-1,26,28,30,32,-1,34,36,38,40,42,-1,-1,-1,-1,-1,-1,-1,-1,-1,-1,-1,-1,-1,-1,-1,-1,-1,-1],"split_conditions":[5.2022054E-3,3.0349648E-1,2.0624092E-3,3.06E8,2.7802082E-2,7.481103E-3,1.6301249E-1,3.861523E-2,1.0929336E-2,-1.3523482E-1,7.84067E-3,6.783017E-3,-1.2858029E-1,9.15E9,8.369084E-2,1.3159434E-4,2.2369032E-3,6.8910676E-1,6.896693E-1,-9.496815E-2,3.0352065E-1,1.374169E-2,1.1092006E-1,6.295359E-1,5.858291E-4,-1.481664E-1,6.520852E-2,8.2722396E-2,1.5308681E-1,-1.7330849E-1,2.622827E-2,6.2878355E-2,-1.1780472E-1,-1.19147E-1,6.830918E-2,-1.18274346E-1,7.634494E-2,1.10797204E-1,-8.614284E-2,6.2299473E-4,-1.1247336E-1,-8.796517E-2,1.1389867E-1],"split_indices":[0,16,13,18,18,21,19,19,3,0,3,0,0,18,0,21,13,17,17,0,16,3,19,25,20,0,0,0,0,0,0,0,0,0,0,0,0,0,0,0,0,0,0],"split_type":[0,0,0,0,0,0,0,0,0,0,0,0,0,0,0,0,0,0,0,0,0,0,0,0,0,0,0,0,0,0,0,0,0,0,0,0,0,0,0,0,0,0,0],"sum_hessian":[6.8928314E2,4.6183304E2,2.2745013E2,3.6736014E2,9.4472885E1,7.601102E1,1.5143912E2,2.1297478E2,1.5438538E2,1.9329012E1,7.514387E1,7.227279E1,3.7382295E0,1.4632698E2,5.1121287E0,1.09391266E2,1.0358351E2,4.5503212E1,1.08882164E2,1.0535574E1,6.46083E1,1.0858758E1,6.141403E1,1.3436508E2,1.1961905E1,4.5804925E0,1.0481077E2,7.45141E1,2.906941E1,1.2666168E1,3.2837044E1,1.0478357E2,4.098598E0,4.1353974E0,6.04729E1,4.277568E0,6.58119E0,5.9844845E1,1.5691829E0,1.2775293E1,1.2158979E2,5.0354958E0,6.9264092E0],"tree_param":{"num_deleted":"0","num_feature":"30","num_nodes":"43","size_leaf_vector":"1"}},{"base_weights":[1.4211226E-1,6.4818966E-1,-8.4854566E-2,-9.285402E-2,7.4414235E-1,-5.661135E-1,3.4952193E-1,1.0543864E0,3.6814478E-1,5.40752E-1,-9.302436E-1,4.8620665E-1,-7.355316E-1,1.1624125E0,-1.1383977E-1,5.269156E-1,-1.0104491E-1,1.0572233E0,-2.0705448E-2,-1.0300983E0,5.3388095E-1,-3.3967152E-1,5.907652E-1,9.190528E-2,-1.2181854E-1,-1.1127563E-1,1.2246268E-1,-4.1849562E-4,8.88712E-2,-7.386919E-2,1.191389E-1,-9.450534E-2,7.2440706E-2,-3.8013157E-2,-1.1542093E-1,1.09551825E-1,-6.368148E-2,-2.1637534E-1,4.1410033E-2,6.3322365E-2,-1.2513433E-1],"categories":[],"categories_nodes":[],"categories_segments":[],"categories_sizes":[],"default_left":[0,0,0,0,0,0,0,0,0,0,0,0,0,0,0,0,0,0,0,0,0,0,0,0,0,0,0,0,0,0,0,0,0,0,0,0,0,0,0,0,0],"id":24,"left_children":[1,3,5,-1,7,9,11,13,15,17,19,21,23,25,-1,27,-1,29,31,33,35,37,39,-1,-1,-1,-1,-1,-1,-1,-1,-1,-1,-1,-1,-1,-1,-1,-1,-1,-1],"loss_changes":[7.1994675E1,3.0732872E1,9.108645E1,0E0,2.0685585E1,8.426309E1,3.47164E1,2.627124E1,1.9943409E1,1.5238376E1,2.393216E1,1.808743E1,2.3357561E1,1.6319763E1,0E0,1.5121508E1,0E0,8.345671E0,2.0012007E1,1.0971298E1,8.817419E0,3.5183605E1,1.5860737E1,0E0,0E0,0E0,0E0,0E0,0E0,0E0,0E0,0E0,0E0,0E0,0E0,0E0,0E0,0E0,0E0,0E0,0E0],"parents":[2147483647,0,0,1,1,2,2,4,4,5,5,6,6,7,7,8,8,9,9,10,10,11,11,12,12,13,13,15,15,17,17,18,18,19,19,20,20,21,21,22,22],"right_children":[2,4,6,-1,8,10,12,14,16,18,20,22,24,26,-1,28,-1,30,32,34,36,38,40,-1,-1,-1,-1,-1,-1,-1,-1,-1,-1,-1,-1,-1,-1,-1,-1,-1,-1],"split_conditions":[6.2491756E-4,4.2340346E-3,1.1711761E-2,-9.285402E-2,7.2683036E-1,3.9959452E-4,2.2916172E-3,4.24E9,1.79807E-1,1.9300929E-3,6.9154465E-1,5.2867126E-1,8.476633E-1,6.287852E-1,-1.1383977E-1,9.149627E-1,-1.0104491E-1,3.5597107E-3,4.550455E-4,4.1823543E-4,2.1758904E-1,5.330533E-4,8.01E9,9.190528E-2,-1.2181854E-1,-1.1127563E-1,1.2246268E-1,-4.1849562E-4,8.88712E-2,-7.386919E-2,1.191389E-1,-9.450534E-2,7.2440706E-2,-3.8013157E-2,-1.1542093E-1,1.09551825E-1,-6.368148E-2,-2.1637534E-1,4.1410033E-2,6.3322365E-2,-1.2513433E-1],"split_indices":[11,3,3,0,24,20,13,18,14,8,17,24,26,25,0,24,0,10,2,20,6,2,18,0,0,0,0,0,0,0,0,0,0,0,0,0,0,0,0,0,0],"split_type":[0,0,0,0,0,0,0,0,0,0,0,0,0,0,0,0,0,0,0,0,0,0,0,0,0,0,0,0,0,0,0,0,0,0,0,0,0,0,0,0,0],"sum_hessian":[6.238308E2,1.9200266E2,4.3182812E2,1.001863E1,1.8198402E2,2.0457108E2,2.2725705E2,9.7733475E1,8.425056E1,5.0399372E1,1.541717E2,2.0281248E2,2.444457E1,9.404041E1,3.6930606E0,7.665758E1,7.592978E0,2.5331516E1,2.5067856E1,1.448834E2,9.288306E0,2.2285824E1,1.8052666E2,5.111956E0,1.9332615E1,1.6041757E0,9.243624E1,3.1862194E1,4.4795383E1,1.1344427E0,2.4197073E1,1.0948741E1,1.4119115E1,2.4532558E1,1.20350845E2,6.363751E0,2.9245553E0,5.4225206E0,1.6863304E1,1.777424E2,2.7842557E0],"tree_param":{"num_deleted":"0","num_feature":"30","num_nodes":"41","size_leaf_vector":"1"}},{"base_weights":[1.6504037E-1,-2.9439774E-1,5.64207E-1,3.7729013E-1,-6.370082E-1,5.8521134E-1,-1.3203625E-1,5.065368E-1,-1.5796544E-1,-1.1156545E-1,-8.952079E-2,3.52153E-1,7.9656744E-1,5.9678215E-1,-1.03592336E-1,6.6685987E-1,-4.299133E-1,8.213315E-1,8.6863354E-2,8.4313005E-1,-7.698318E-1,6.717775E-2,-9.543394E-2,-1.01358294E-1,1.1001875E-1,-1.0569741E-1,3.6904387E-2,-9.390843E-2,8.904317E-2,-1.3684124E-1,3.3963893E-2,2.4329957E-3,9.099745E-2,4.9782943E-2,-1.5666609E-1],"categories":[],"categories_nodes":[],"categories_segments":[],"categories_sizes":[],"default_left":[0,0,0,0,0,0,0,0,0,0,0,0,0,0,0,0,0,0,0,0,0,0,0,0,0,0,0,0,0,0,0,0,0,0,0],"id":25,"left_children":[1,3,5,7,9,11,-1,13,-1,-1,15,17,19,21,-1,23,25,27,29,31,33,-1,-1,-1,-1,-1,-1,-1,-1,-1,-1,-1,-1,-1,-1],"loss_changes":[1.0919682E2,6.429201E1,1.4146118E1,2.560785E1,4.811461E1,1.5014732E1,0E0,1.3841293E1,0E0,0E0,2.3275331E1,1.90213E1,1.3276993E1,1.1381247E1,0E0,2.2728321E1,3.1854248E1,8.408627E0,3.793263E1,8.73761E0,7.405007E0,0E0,0E0,0E0,0E0,0E0,0E0,0E0,0E0,0E0,0E0,0E0,0E0,0E0,0E0],"parents":[2147483647,0,0,1,1,2,2,3,3,4,4,5,5,7,7,10,10,11,11,12,12,13,13,15,15,16,16,17,17,18,18,19,19,20,20],"right_children":[2,4,6,8,10,12,-1,14,-1,-1,16,18,20,22,-1,24,26,28,30,32,34,-1,-1,-1,-1,-1,-1,-1,-1,-1,-1,-1,-1,-1,-1],"split_conditions":[3.7916338E-1,4.1691287E-4,7.78E9,3.777319E-1,3.231679E-1,3.57E8,-1.3203625E-1,8.4808093E-1,-1.5796544E-1,-1.1156545E-1,6.228886E-4,6.898441E-4,1.64751E-3,7.190719E-4,-1.03592336E-1,5.681069E-4,3.7674883E-1,9.215183E-3,3.590359E-4,5.2274054E-1,6.363917E-4,6.717775E-2,-9.543394E-2,-1.01358294E-1,1.1001875E-1,-1.0569741E-1,3.6904387E-2,-9.390843E-2,8.904317E-2,-1.3684124E-1,3.3963893E-2,2.4329957E-3,9.099745E-2,4.9782943E-2,-1.5666609E-1],"split_indices":[4,20,7,4,1,7,0,26,0,0,11,11,11,2,0,11,4,19,2,24,10,0,0,0,0,0,0,0,0,0,0,0,0,0,0],"split_type":[0,0,0,0,0,0,0,0,0,0,0,0,0,0,0,0,0,0,0,0,0,0,0,0,0,0,0,0,0,0,0,0,0,0,0],"sum_hessian":[5.916158E2,2.752871E2,3.1632864E2,9.29183E1,1.823688E2,3.1420566E2,2.123009E0,8.855218E1,4.3661213E0,9.6194374E1,8.617444E1,1.5196692E2,1.6223872E2,8.481601E1,3.736171E0,2.6149618E1,6.002482E1,5.3376266E1,9.859066E1,1.5845207E2,3.7866488E0,8.198588E1,2.8301275E0,4.8117065E0,2.1337912E1,3.3268322E1,2.6756495E1,1.0649484E0,5.2311317E1,1.3284165E1,8.530649E1,1.2165134E1,1.4628694E2,1.7511883E0,2.0354605E0],"tree_param":{"num_deleted":"0","num_feature":"30","num_nodes":"35","size_leaf_vector":"1"}},{"base_weights":[1.2960504E-1,-4.765645E-1,4.2029136E-1,6.2261766E-1,-7.8253615E-1,4.942151E-1,-6.1862063E-1,8.094853E-1,-1.3702317E-1,6.560461E-2,-1.1052145E-1,3.3332112E-1,8.919696E-1,-1.2276175E-1,3.5626814E-1,9.1685015E-1,-6.817799E-2,-1.0293265E-1,7.0196366E-1,5.340294E-1,-1.1427158E0,1.0141925E0,-3.0317226E-1,8.129502E-2,-6.409675E-2,-4.9094457E-2,9.956301E-2,-7.92292E-2,9.9657275E-2,-1.2607054E-1,5.78815E-2,4.7266934E-2,-1.6402237E-1,-9.089176E-2,1.0578811E-1,7.9463385E-2,-1.1966752E-1],"categories":[],"categories_nodes":[],"categories_segments":[],"categories_sizes":[],"default_left":[0,0,0,0,0,0,0,0,0,0,0,0,0,0,0,0,0,0,0,0,0,0,0,0,0,0,0,0,0,0,0,0,0,0,0,0,0],"id":26,"left_children":[1,3,5,7,9,11,13,15,-1,17,-1,19,21,-1,23,25,-1,-1,27,29,31,33,35,-1,-1,-1,-1,-1,-1,-1,-1,-1,-1,-1,-1,-1,-1],"loss_changes":[9.7138725E1,6.113519E1,2.919101E1,1.7138498E1,3.86829E1,2.1709366E1,1.607832E1,7.316311E0,0E0,2.9801325E1,0E0,7.567998E1,1.5102898E1,0E0,6.232251E0,4.99193E0,0E0,0E0,1.3433072E1,1.9352844E1,2.6241123E1,9.521713E0,1.243831E1,0E0,0E0,0E0,0E0,0E0,0E0,0E0,0E0,0E0,0E0,0E0,0E0,0E0,0E0],"parents":[2147483647,0,0,1,1,2,2,3,3,4,4,5,5,6,6,7,7,9,9,11,11,12,12,14,14,15,15,18,18,19,19,20,20,21,21,22,22],"right_children":[2,4,6,8,10,12,14,16,-1,18,-1,20,22,-1,24,26,-1,-1,28,30,32,34,36,-1,-1,-1,-1,-1,-1,-1,-1,-1,-1,-1,-1,-1,-1],"split_conditions":[3.763373E-1,3.9006193E-4,2.176264E-1,3.7412068E-1,6.228886E-4,3.1711283E-1,2.3892608E-3,6.3061154E-1,-1.3702317E-1,9.937976E-3,-1.1052145E-1,3.1483155E-1,3.2411402E-1,-1.2276175E-1,3.0342615E-1,5.1480677E-2,-6.817799E-2,-1.0293265E-1,3.1497654E-1,1.6279651E-4,1.523324E-1,2.95006E-1,2.674443E-3,8.129502E-2,-6.409675E-2,-4.9094457E-2,9.956301E-2,-7.92292E-2,9.9657275E-2,-1.2607054E-1,5.78815E-2,4.7266934E-2,-1.6402237E-1,-9.089176E-2,1.0578811E-1,7.9463385E-2,-1.1966752E-1],"split_indices":[4,20,6,4,11,15,13,25,0,8,0,15,28,0,16,19,0,0,15,23,14,28,29,0,0,0,0,0,0,0,0,0,0,0,0,0,0],"split_type":[0,0,0,0,0,0,0,0,0,0,0,0,0,0,0,0,0,0,0,0,0,0,0,0,0,0,0,0,0,0,0,0,0,0,0,0,0],"sum_hessian":[5.470084E2,1.7688026E2,3.7012814E2,3.8064907E1,1.3881535E2,3.465201E2,2.3608036E1,3.588739E1,2.177518E0,3.8696724E1,1.0011863E2,2.4933762E2,9.718248E1,1.4211728E1,9.396307E0,3.419581E1,1.6915822E0,1.3769544E1,2.492718E1,2.2061523E2,2.8722378E1,8.8440765E1,8.7417145E0,6.698387E0,2.69792E0,1.2576649E0,3.293814E1,3.5488474E0,2.1378332E1,4.049176E0,2.1656607E2,6.7865663E0,2.1935812E1,1.0847064E0,8.735606E1,4.021719E0,4.719996E0],"tree_param":{"num_deleted":"0","num_feature":"30","num_nodes":"37","size_leaf_vector":"1"}},{"base_weights":[2.7534473E-1,4.6975347E-1,-5.58734E-1,-9.859656E-2,5.149257E-1,-1.0564555E-1,2.5747246E-1,5.3457856E-1,-1.6415156E-1,1.0080079E0,-3.6255938E-1,3.6713484E-1,8.045678E-1,1.7317874E-2,1.1595062E-1,5.304631E-1,-1.1822585E-1,-1.9497512E-2,6.706027E-2,8.494527E-2,-1.0760778E-1,-8.5879944E-2,8.768943E-2],"categories":[],"categories_nodes":[],"categories_segments":[],"categories_sizes":[],"default_left":[0,0,0,0,0,0,0,0,0,0,0,0,0,0,0,0,0,0,0,0,0,0,0],"id":27,"left_children":[1,3,5,-1,7,-1,9,11,-1,13,15,17,19,-1,-1,21,-1,-1,-1,-1,-1,-1,-1],"loss_changes":[9.96147E1,3.367527E1,4.7840645E1,0E0,2.2226059E1,0E0,2.2002396E1,2.1117157E1,0E0,2.280672E0,2.0654173E1,5.1444904E1,1.7202019E1,0E0,0E0,8.275111E0,0E0,0E0,0E0,0E0,0E0,0E0,0E0],"parents":[2147483647,0,0,1,1,2,2,4,4,6,6,7,7,9,9,10,10,11,11,12,12,15,15],"right_children":[2,4,6,-1,8,-1,10,12,-1,14,16,18,20,-1,-1,22,-1,-1,-1,-1,-1,-1,-1],"split_conditions":[4.9261445E-1,2.5998778E-3,1.3520095E-2,-9.859656E-2,6.4252955E-1,-1.0564555E-1,2.2369032E-3,6.894333E-1,-1.6415156E-1,1.612961E-4,4.8306925E-4,1.8704741E-3,6.88E9,1.7317874E-2,1.1595062E-1,3.428791E-4,-1.1822585E-1,-1.9497512E-2,6.706027E-2,8.494527E-2,-1.0760778E-1,-8.5879944E-2,8.768943E-2],"split_indices":[5,3,3,0,25,0,13,17,0,7,10,10,23,0,0,10,0,0,0,0,0,0,0],"split_type":[0,0,0,0,0,0,0,0,0,0,0,0,0,0,0,0,0,0,0,0,0,0,0],"sum_hessian":[6.090911E2,4.9466678E2,1.14424324E2,1.3634315E1,4.8103247E2,7.071421E1,4.3710117E1,4.7817877E2,2.8537064E0,1.9207895E1,2.4502222E1,2.9805106E2,1.8012769E2,3.6086574E0,1.5599237E1,1.2064379E1,1.2437843E1,1.0474611E2,1.9330496E2,1.7699991E2,3.1277752E0,1.8175677E0,1.0246811E1],"tree_param":{"num_deleted":"0","num_feature":"30","num_nodes":"23","size_leaf_vector":"1"}},{"base_weights":[1.8328674E-1,2.7627948E-1,-1.034508E-1,4.8184398E-1,-8.4348924E-2,5.169773E-1,-1.7051329E-1,3.1749648E-1,-5.369798E-1,1.9598985E-1,7.0014185E-1,-2.457354E-1,8.446828E-1,6.0904812E-2,-1.1050242E0,-1.2637731E-1,5.2760836E-2,9.169361E-2,3.4797367E-2,-6.988964E-2,8.847708E-2,1.0549056E-1,-6.980413E-2,6.2652275E-2,-7.3381975E-2,-1.2702091E-1,7.074685E-2],"categories":[],"categories_nodes":[],"categories_segments":[],"categories_sizes":[],"default_left":[0,0,0,0,0,0,0,0,0,0,0,0,0,0,0,0,0,0,0,0,0,0,0,0,0,0,0],"id":28,"left_children":[1,3,-1,5,7,9,-1,11,13,15,17,19,21,23,25,-1,-1,-1,-1,-1,-1,-1,-1,-1,-1,-1,-1],"loss_changes":[6.538021E1,3.9613102E1,0E0,2.7883324E1,3.5865387E1,1.9486633E1,0E0,3.1508194E1,3.1581793E1,6.1790993E1,1.5640762E1,2.7966757E1,1.9160706E1,2.20499E1,1.6044445E1,0E0,0E0,0E0,0E0,0E0,0E0,0E0,0E0,0E0,0E0,0E0,0E0],"parents":[2147483647,0,0,1,1,3,3,4,4,5,5,7,7,8,8,9,9,10,10,11,11,12,12,13,13,14,14],"right_children":[2,4,-1,6,8,10,-1,12,14,16,18,20,22,24,26,-1,-1,-1,-1,-1,-1,-1,-1,-1,-1,-1,-1],"split_conditions":[5.200117E-1,3.0345008E-1,-1.034508E-1,7.78E9,5.9E9,3.7916338E-1,-1.7051329E-1,1.7258046E-2,1.0119208E-4,2.2500955E-1,3.1386855E-1,3.3398175E-1,1.4344698E-3,5.1227026E-3,4.0289947E-1,-1.2637731E-1,5.2760836E-2,9.169361E-2,3.4797367E-2,-6.988964E-2,8.847708E-2,1.0549056E-1,-6.980413E-2,6.2652275E-2,-7.3381975E-2,-1.2702091E-1,7.074685E-2],"split_indices":[5,16,0,7,22,4,0,3,7,12,15,28,11,27,4,0,0,0,0,0,0,0,0,0,0,0,0],"split_type":[0,0,0,0,0,0,0,0,0,0,0,0,0,0,0,0,0,0,0,0,0,0,0,0,0,0,0],"sum_hessian":[5.702811E2,5.312596E2,3.9021557E1,3.3794992E2,1.9330963E2,3.3410974E2,3.8401773E0,1.0271575E2,9.059388E1,1.22890274E2,2.1121947E2,5.017638E1,5.2539368E1,4.5007565E1,4.5586315E1,2.17086E1,1.0118168E2,1.2875233E2,8.246713E1,3.6363655E1,1.3812725E1,4.6795135E1,5.7442307E0,2.6541126E1,1.846644E1,4.2327133E1,3.2591784E0],"tree_param":{"num_deleted":"0","num_feature":"30","num_nodes":"27","size_leaf_vector":"1"}},{"base_weights":[1.9285455E-1,2.8753158E-1,-1.0269429E-1,-7.821337E-1,3.7465948E-1,-1.3242672E-1,3.6978054E-1,-2.159979E-1,4.7283876E-1,8.7313205E-2,-1.04491904E-1,6.173006E-1,-1.0260292E-1,1.02364875E-1,6.430423E-1,9.981653E-2,-6.689369E-2,3.0224726E-2,-1.774237E-1,7.245755E-2,-2.8525863E-2],"categories":[],"categories_nodes":[],"categories_segments":[],"categories_sizes":[],"default_left":[0,0,0,0,0,0,0,0,0,0,0,0,0,0,0,0,0,0,0,0,0],"id":29,"left_children":[1,3,-1,5,7,-1,9,11,13,-1,-1,15,-1,17,19,-1,-1,-1,-1,-1,-1],"loss_changes":[6.0049522E1,4.52589E1,0E0,2.3929724E1,2.5985813E1,0E0,1.1312902E1,4.496542E1,2.3945946E1,0E0,0E0,1.7579876E1,0E0,4.705306E1,2.0187653E1,0E0,0E0,0E0,0E0,0E0,0E0],"parents":[2147483647,0,0,1,1,3,3,4,4,6,6,7,7,8,8,11,11,13,13,14,14],"right_children":[2,4,-1,6,8,-1,10,12,14,-1,-1,16,-1,18,20,-1,-1,-1,-1,-1,-1],"split_conditions":[5.200117E-1,1.2008857E-2,-1.0269429E-1,6.356228E-1,3.7341166E-1,-1.3242672E-1,2.1756472E-1,2.0356376E-3,6.8913585E-1,8.7313205E-2,-1.04491904E-1,2.785683E-4,-1.0260292E-1,2.163193E-3,2.1762864E-1,9.981653E-2,-6.689369E-2,3.0224726E-2,-1.774237E-1,7.245755E-2,-2.8525863E-2],"split_indices":[5,19,0,25,4,0,6,13,17,0,0,21,0,13,6,0,0,0,0,0,0],"split_type":[0,0,0,0,0,0,0,0,0,0,0,0,0,0,0,0,0,0,0,0,0],"sum_hessian":[5.128549E2,4.7733423E2,3.5520702E1,3.4750473E1,4.4258374E2,2.3426058E1,1.1324415E1,6.273899E1,3.7984476E2,8.917271E0,2.4071443E0,3.1159908E1,3.157908E1,1.205822E2,2.5926257E2,2.438674E1,6.773169E0,1.10491325E2,1.0090878E1,2.387334E2,2.0529161E1],"tree_param":{"num_deleted":"0","num_feature":"30","num_nodes":"21","size_leaf_vector":"1"}},{"base_weights":[2.118507E-1,-2.5374687E-1,4.238325E-1,6.7529154E-1,-4.654836E-1,5.0693005E-1,-3.9204493E-1,-1.0615777E-1,8.6522317E-1,-7.429641E-1,2.3105206E-1,-1.04630545E-1,5.486989E-1,-1.1210093E0,5.12466E-1,1.0827972E0,-3.7275437E-1,6.934647E-1,-9.6415645E-1,7.3513407E-1,-9.3831435E-2,5.716834E-1,-1.5388276E-1,-1.7078017E0,4.79746E-2,7.8262365E-1,-6.6981986E-2,1.1915773E-1,1.9736208E-2,4.627352E-2,-8.9520246E-2,1.1327521E-1,-6.282474E-2,8.49494E-2,-1.1255667E-1,1.04602925E-1,-7.181155E-2,-1.2996745E-1,5.9721846E-2,4.7497433E-2,-2.053666E-1,2.5934098E-2,9.289302E-2],"categories":[],"categories_nodes":[],"categories_segments":[],"categories_sizes":[],"default_left":[0,0,0,0,0,0,0,0,0,0,0,0,0,0,0,0,0,0,0,0,0,0,0,0,0,0,0,0,0,0,0,0,0,0,0,0,0,0,0,0,0,0,0],"id":30,"left_children":[1,3,5,7,9,11,13,-1,15,17,19,-1,21,23,25,27,29,31,33,35,-1,37,-1,39,-1,41,-1,-1,-1,-1,-1,-1,-1,-1,-1,-1,-1,-1,-1,-1,-1,-1,-1],"loss_changes":[5.0905922E1,3.2482132E1,2.4375004E1,1.2021095E1,2.606017E1,2.2028526E1,2.3447773E1,0E0,8.599665E0,3.1720402E1,2.462278E1,0E0,1.6860413E1,1.9818258E1,6.3073626E0,1.948967E0,3.3655443E0,9.50755E0,2.6415688E1,1.4458069E1,0E0,1.6497643E1,0E0,1.2973984E1,0E0,6.1487484E-1,0E0,0E0,0E0,0E0,0E0,0E0,0E0,0E0,0E0,0E0,0E0,0E0,0E0,0E0,0E0,0E0,0E0],"parents":[2147483647,0,0,1,1,2,2,3,3,4,4,5,5,6,6,8,8,9,9,10,10,12,12,13,13,14,14,15,15,16,16,17,17,18,18,19,19,21,21,23,23,25,25],"right_children":[2,4,6,8,10,12,14,-1,16,18,20,-1,22,24,26,28,30,32,34,36,-1,38,-1,40,-1,42,-1,-1,-1,-1,-1,-1,-1,-1,-1,-1,-1,-1,-1,-1,-1,-1,-1],"split_conditions":[3.763809E-1,1.523324E-1,1.9721424E-3,6.3506234E-4,6.312047E-1,8.384173E-3,3.98E9,-1.0615777E-1,3.168282E-1,1.10085944E-4,1.5154002E-3,-1.04630545E-1,6.4252955E-1,3.2284975E-2,4.467084E-4,5.07E9,3.696372E-1,3.0976588E-1,1.022722E-4,4.4765667E-4,-9.3831435E-2,1.0499794E-4,-1.5388276E-1,1.3341199E-1,4.79746E-2,2.1265924E-2,-6.6981986E-2,1.1915773E-1,1.9736208E-2,4.627352E-2,-8.9520246E-2,1.1327521E-1,-6.282474E-2,8.49494E-2,-1.1255667E-1,1.04602925E-1,-7.181155E-2,-1.2996745E-1,5.9721846E-2,4.7497433E-2,-2.053666E-1,2.5934098E-2,9.289302E-2],"split_indices":[4,14,11,11,25,3,23,0,28,21,18,0,25,10,20,22,4,15,23,20,0,21,0,14,0,3,0,0,0,0,0,0,0,0,0,0,0,0,0,0,0,0,0],"split_type":[0,0,0,0,0,0,0,0,0,0,0,0,0,0,0,0,0,0,0,0,0,0,0,0,0,0,0,0,0,0,0,0,0,0,0,0,0,0,0,0,0,0,0],"sum_hessian":[5.1159418E2,1.5992978E2,3.5166437E2,2.887151E1,1.3105827E2,3.198453E2,3.1819069E1,1.9412082E0,2.6930302E1,9.3626686E1,3.7431587E1,7.116277E0,3.1272903E2,1.7354225E1,1.4464843E1,2.311802E1,3.812283E0,1.1923692E1,8.1702995E1,2.667528E1,1.0756307E1,3.1075974E2,1.969311E0,1.2601223E1,4.753002E0,1.2324682E1,2.140161E0,1.997276E1,3.1452591E0,1.5546707E0,2.2576122E0,9.163891E0,2.7598004E0,5.980342E0,7.572266E1,2.2435959E1,4.23932E0,2.8398921E0,3.0791983E2,1.6214613E0,1.0979762E1,3.9045978E0,8.420084E0],"tree_param":{"num_deleted":"0","num_feature":"30","num_nodes":"43","size_leaf_vector":"1"}},{"base_weights":[2.8749454E-1,-7.604381E-2,5.066568E-1,1.9455592E-1,-9.770565E-1,7.131954E-1,6.492424E-2,-2.81454E-1,5.9861934E-1,2.9213239E-2,-1.07874E-1,8.683526E-1,-9.650627E-2,4.46173E-1,-6.122955E-1,-1.5955758E-1,2.2588691E-1,7.0248467E-1,-8.4128654E-1,1.1313025E0,4.5559236E-1,6.134062E-1,-7.26702E-1,-4.2016768E-1,7.0597035E-1,1.1802048E-2,-1.3436908E-1,-7.149479E-2,7.022677E-2,8.330913E-2,-1.3388701E-2,4.5337193E-2,-1.3859399E-1,8.689048E-2,1.723246E-1,5.7221808E-2,-1.4412147E-1,1.08562134E-1,-2.9710436E-2,-1.0843965E-1,5.582968E-2,9.1643445E-2,-1.1198451E-1,-1.0902486E-1,7.94753E-2,-1.0468312E-1,6.2658146E-2],"categories":[],"categories_nodes":[],"categories_segments":[],"categories_sizes":[],"default_left":[0,0,0,0,0,0,0,0,0,0,0,0,0,0,0,0,0,0,0,0,0,0,0,0,0,0,0,0,0,0,0,0,0,0,0,0,0,0,0,0,0,0,0,0,0,0,0],"id":31,"left_children":[1,3,5,7,9,11,13,15,17,-1,-1,19,21,23,25,-1,27,29,31,33,35,37,39,41,43,45,-1,-1,-1,-1,-1,-1,-1,-1,-1,-1,-1,-1,-1,-1,-1,-1,-1,-1,-1,-1,-1],"loss_changes":[4.310256E1,5.0325066E1,3.0669167E1,3.0957947E1,6.7790794E0,2.9006058E1,2.8849802E1,5.0360435E1,1.4155842E1,0E0,0E0,1.9898605E1,1.8211218E1,1.6639793E1,1.8439909E1,0E0,2.5864916E1,9.180679E0,6.0139804E0,1.5092239E1,1.8990458E1,8.938843E0,1.1057878E1,1.8606644E1,1.0598619E1,1.6764227E1,0E0,0E0,0E0,0E0,0E0,0E0,0E0,0E0,0E0,0E0,0E0,0E0,0E0,0E0,0E0,0E0,0E0,0E0,0E0,0E0,0E0],"parents":[2147483647,0,0,1,1,2,2,3,3,4,4,5,5,6,6,7,7,8,8,11,11,12,12,13,13,14,14,16,16,17,17,18,18,19,19,20,20,21,21,22,22,23,23,24,24,25,25],"right_children":[2,4,6,8,10,12,14,16,18,-1,-1,20,22,24,26,-1,28,30,32,34,36,38,40,42,44,46,-1,-1,-1,-1,-1,-1,-1,-1,-1,-1,-1,-1,-1,-1,-1,-1,-1,-1,-1,-1,-1],"split_conditions":[2.3167469E-1,4.8032954E-1,1.03E9,3.801263E-1,2.1756653E-1,1.8060765E-1,5.92E9,2.9209799E-3,2.1446035E-3,2.9213239E-2,-1.07874E-1,1.03E9,1.1609405E-2,3.7741426E-1,3.0342013E-1,-1.5955758E-1,6.6583493E-4,3.1474945E-1,1.9884568E-3,7.97E8,1.9721424E-3,6.228886E-4,6.348259E-1,2.0386882E-3,5.599048E-3,3.033522E-1,-1.3436908E-1,-7.149479E-2,7.022677E-2,8.330913E-2,-1.3388701E-2,4.5337193E-2,-1.3859399E-1,8.689048E-2,1.723246E-1,5.7221808E-2,-1.4412147E-1,1.08562134E-1,-2.9710436E-2,-1.0843965E-1,5.582968E-2,9.1643445E-2,-1.1198451E-1,-1.0902486E-1,7.94753E-2,-1.0468312E-1,6.2658146E-2],"split_indices":[1,5,18,4,6,14,22,10,11,0,0,23,19,4,16,0,21,15,1,23,11,11,25,9,9,16,0,0,0,0,0,0,0,0,0,0,0,0,0,0,0,0,0,0,0,0,0],"split_type":[0,0,0,0,0,0,0,0,0,0,0,0,0,0,0,0,0,0,0,0,0,0,0,0,0,0,0,0,0,0,0,0,0,0,0,0,0,0,0,0,0,0,0,0,0,0,0],"sum_hessian":[5.3802E2,2.0284848E2,3.3517154E2,1.5720384E2,4.5644646E1,2.2754872E2,1.0762281E2,7.2454796E1,8.474904E1,3.1078098E0,4.2536835E1,1.9083545E2,3.6713272E1,6.929482E1,3.832799E1,1.8986286E1,5.346851E1,8.000246E1,4.7465873E0,1.1444582E2,7.638963E1,1.7289742E1,1.942353E1,1.5701333E1,5.3593487E1,2.1742718E1,1.6585274E1,1.7636158E1,3.583235E1,6.920357E1,1.0798888E1,1.5048058E0,3.2417812E0,8.2715385E1,3.1730436E1,7.32806E1,3.1090279E0,1.1131832E1,6.15791E0,1.5438315E1,3.9852147E0,5.1821737E0,1.0519159E1,1.4616646E0,5.2131824E1,7.471481E0,1.4271236E1],"tree_param":{"num_deleted":"0","num_feature":"30","num_nodes":"47","size_leaf_vector":"1"}},{"base_weights":[3.8282695E-1,4.8781073E-1,-8.117625E-1,7.46244E-1,3.370591E-1,7.712927E-2,-1.04269125E-1,8.79144E-1,-4.465483E-3,-4.3209183E-1,4.5549276E-1,1.0199956E0,-1.203788E-2,-6.9341165E-1,9.257947E-1,3.2061687E-1,-1.4943507E-1,5.49128E-1,-5.0152874E-1,1.05762854E-1,-8.610778E-2,4.0653244E-2,-2.1155599E-1,-1.1202162E-1,4.9385943E-2,1.09279014E-1,-3.826603E-2,5.7820916E-2,-1.6513312E-1,8.6113125E-2,3.1065429E-2,5.2353173E-2,-1.644234E-1],"categories":[],"categories_nodes":[],"categories_segments":[],"categories_sizes":[],"default_left":[0,0,0,0,0,0,0,0,0,0,0,0,0,0,0,0,0,0,0,0,0,0,0,0,0,0,0,0,0,0,0,0,0],"id":32,"left_children":[1,3,5,7,9,-1,-1,11,13,15,17,19,21,23,25,27,-1,29,31,-1,-1,-1,-1,-1,-1,-1,-1,-1,-1,-1,-1,-1,-1],"loss_changes":[7.0394875E1,1.9420967E1,1.8272995E1,1.8641228E1,3.0148563E1,0E0,0E0,1.9943306E1,2.0562408E1,3.6628258E1,2.6003075E1,1.1523254E1,2.2529034E1,1.0443101E1,3.8200788E0,1.6008907E1,0E0,1.878579E1,3.2596222E1,0E0,0E0,0E0,0E0,0E0,0E0,0E0,0E0,0E0,0E0,0E0,0E0,0E0,0E0],"parents":[2147483647,0,0,1,1,2,2,3,3,4,4,7,7,8,8,9,9,10,10,11,11,12,12,13,13,14,14,15,15,17,17,18,18],"right_children":[2,4,6,8,10,-1,-1,12,14,16,18,20,22,24,26,28,-1,30,32,-1,-1,-1,-1,-1,-1,-1,-1,-1,-1,-1,-1,-1,-1],"split_conditions":[5.0650805E-1,2.1075355E-4,1.4550588E-1,1.7740509E-1,1.5154002E-3,7.712927E-2,-1.04269125E-1,1.4527305E-3,2.111584E-1,4.797333E-3,5.69E9,3.2644832E-1,1.819185E-2,8.483626E-1,2.1849059E-1,4.639253E-4,-1.4943507E-1,3.146707E-1,1.5148381E-4,1.05762854E-1,-8.610778E-2,4.0653244E-2,-2.1155599E-1,-1.1202162E-1,4.9385943E-2,1.09279014E-1,-3.826603E-2,5.7820916E-2,-1.6513312E-1,8.6113125E-2,3.1065429E-2,5.2353173E-2,-1.644234E-1],"split_indices":[5,18,14,14,18,0,0,11,14,0,23,28,3,26,14,18,0,28,21,0,0,0,0,0,0,0,0,0,0,0,0,0,0],"split_type":[0,0,0,0,0,0,0,0,0,0,0,0,0,0,0,0,0,0,0,0,0,0,0,0,0,0,0,0,0,0,0,0,0],"sum_hessian":[5.5299176E2,5.0940695E2,4.3584766E1,1.8476472E2,3.2464224E2,4.95277E0,3.8631996E1,1.5668434E2,2.8080387E1,4.261143E1,2.8203082E2,1.3505048E2,2.163386E1,1.6425186E1,1.1655203E1,2.5756742E1,1.6854687E1,2.576725E2,2.4358318E1,1.3325996E2,1.7905065E0,1.9389172E1,2.2446892E0,1.2165017E1,4.260168E0,1.0628373E1,1.0268289E0,2.4031157E1,1.725585E0,1.0936479E2,1.4830771E2,1.3411378E1,1.0946939E1],"tree_param":{"num_deleted":"0","num_feature":"30","num_nodes":"33","size_leaf_vector":"1"}},{"base_weights":[3.069211E-1,4.0991485E-1,-3.1224963E-1,2.7814966E-1,8.9028424E-1,4.8387426E-1,-1.1681634E-1,3.8198423E-1,-9.5600027E-1,1.0779729E0,-8.9232427E-1,8.2528085E-1,-2.3478085E-1,4.6055734E-1,-3.5341206E-1,-6.607588E-2,-1.4107378E-1,-1.06600165E-1,1.162812E0,4.2511E-2,-1.1944959E-1,9.758295E-1,-3.715623E-1,8.630565E-2,-1.4700991E-1,1.4194908E-2,6.2110998E-2,-1.160443E-1,6.25714E-2,-1.8786058E-1,7.2369285E-2,2.3896126E-3,1.2944296E-1,3.115127E-2,1.0854987E-1,-9.6958265E-2,4.219365E-2],"categories":[],"categories_nodes":[],"categories_segments":[],"categories_sizes":[],"default_left":[0,0,0,0,0,0,0,0,0,0,0,0,0,0,0,0,0,0,0,0,0,0,0,0,0,0,0,0,0,0,0,0,0,0,0,0,0],"id":33,"left_children":[1,3,5,7,9,11,-1,13,15,17,19,21,23,25,27,29,-1,-1,31,-1,-1,33,35,-1,-1,-1,-1,-1,-1,-1,-1,-1,-1,-1,-1,-1,-1],"loss_changes":[3.319511E1,2.7590622E1,5.210087E1,4.572525E1,3.35763E1,1.024295E1,0E0,1.9122063E1,1.1071657E1,1.82126E1,5.0387764E0,5.7116413E0,2.2193676E1,1.4901936E1,2.7159273E1,1.9190102E1,0E0,0E0,1.2554253E1,0E0,0E0,1.1548386E0,2.9728668E0,0E0,0E0,0E0,0E0,0E0,0E0,0E0,0E0,0E0,0E0,0E0,0E0,0E0,0E0],"parents":[2147483647,0,0,1,1,2,2,3,3,4,4,5,5,7,7,8,8,9,9,10,10,11,11,12,12,13,13,14,14,15,15,18,18,21,21,22,22],"right_children":[2,4,6,8,10,12,-1,14,16,18,20,22,24,26,28,30,-1,-1,32,-1,-1,34,36,-1,-1,-1,-1,-1,-1,-1,-1,-1,-1,-1,-1,-1,-1],"split_conditions":[3.247153E-1,3.2223952E-1,3.0342013E-1,3.2040036E-1,3.11E9,6.8623406E-1,-1.1681634E-1,7.33E9,3.9180875E-4,4.4E9,3.4724022E-4,2.0160686E-2,3.671039E-4,9.418797E-3,4.7797877E-3,4.360436E-4,-1.4107378E-1,-1.06600165E-1,1.7824136E-2,4.2511E-2,-1.1944959E-1,3.40034E-4,1.330397E-2,8.630565E-2,-1.4700991E-1,1.4194908E-2,6.2110998E-2,-1.160443E-1,6.25714E-2,-1.8786058E-1,7.2369285E-2,2.3896126E-3,1.2944296E-1,3.115127E-2,1.0854987E-1,-9.6958265E-2,4.219365E-2],"split_indices":[28,28,16,28,18,24,0,22,20,22,20,9,20,8,10,2,0,0,19,0,0,2,3,0,0,0,0,0,0,0,0,0,0,0,0,0,0],"split_type":[0,0,0,0,0,0,0,0,0,0,0,0,0,0,0,0,0,0,0,0,0,0,0,0,0,0,0,0,0,0,0,0,0,0,0,0,0],"sum_hessian":[5.145242E2,4.4172324E2,7.280096E1,3.4911826E2,9.260496E1,3.816827E1,3.4632683E1,3.2329868E2,2.581959E1,8.449875E1,8.106204E0,2.5674517E1,1.2493754E1,2.9276572E2,3.0532967E1,9.506303E0,1.6313286E1,2.3359818E0,8.216277E1,1.3605709E0,6.7456326E0,2.3133879E1,2.540639E0,6.934079E0,5.559675E0,9.935974E1,1.9340596E2,1.6534374E1,1.3998592E1,2.0482302E0,7.4580727E0,8.756236E0,7.340653E1,4.36628E0,1.8767597E1,1.1956905E0,1.3449483E0],"tree_param":{"num_deleted":"0","num_feature":"30","num_nodes":"37","size_leaf_vector":"1"}},{"base_weights":[2.540394E-1,7.096207E-1,5.0240424E-2,7.554567E-1,-1.10537685E-1,-9.967416E-2,1.6082706E-1,1.016693E0,4.596979E-1,5.8858246E-3,8.021446E-1,1.1002291E0,-1.9506386E-1,6.797904E-1,2.2245543E-2,-3.9201087E-1,4.8213822E-1,9.4240105E-1,-1.0299007E-1,1.1299395E-1,2.1102189E-3,5.124628E-2,-7.50102E-2,-2.9849387E-3,8.177405E-2,3.1775113E-2,-1.4178585E-1,-1.15803085E-1,-1.0643238E-2,-1.4182188E-3,1.1305975E-1,-8.950599E-2,1.0072716E-1],"categories":[],"categories_nodes":[],"categories_segments":[],"categories_sizes":[],"default_left":[0,0,0,0,0,0,0,0,0,0,0,0,0,0,0,0,0,0,0,0,0,0,0,0,0,0,0,0,0,0,0,0,0],"id":34,"left_children":[1,3,5,7,-1,-1,9,11,13,15,17,19,21,23,25,27,29,31,-1,-1,-1,-1,-1,-1,-1,-1,-1,-1,-1,-1,-1,-1,-1],"loss_changes":[4.604343E1,1.4428299E1,4.0302094E1,1.0714081E1,0E0,0E0,3.119653E1,8.365906E0,7.129385E0,4.869164E1,1.7639885E1,2.3136292E0,3.4216635E0,4.885252E0,1.2373351E1,3.0381227E1,3.767083E1,8.692101E0,0E0,0E0,0E0,0E0,0E0,0E0,0E0,0E0,0E0,0E0,0E0,0E0,0E0,0E0,0E0],"parents":[2147483647,0,0,1,1,2,2,3,3,6,6,7,7,8,8,9,9,10,10,11,11,12,12,13,13,14,14,15,15,16,16,17,17],"right_children":[2,4,6,8,-1,-1,10,12,14,16,18,20,22,24,26,28,30,32,-1,-1,-1,-1,-1,-1,-1,-1,-1,-1,-1,-1,-1,-1,-1],"split_conditions":[1.5553495E-1,7.25E9,4.4802525E-3,9E8,-1.10537685E-1,-9.967416E-2,4.897492E-2,3.191271E-1,3.671039E-4,9.656857E-3,1.8385234E-1,6.13E9,4.921869E-3,7.157475E-1,5.471311E-3,9.85692E-3,4.7812596E-4,2.8021374E-1,-1.0299007E-1,1.1299395E-1,2.1102189E-3,5.124628E-2,-7.50102E-2,-2.9849387E-3,8.177405E-2,3.1775113E-2,-1.4178585E-1,-1.15803085E-1,-1.0643238E-2,-1.4182188E-3,1.1305975E-1,-8.950599E-2,1.0072716E-1],"split_indices":[14,22,3,23,0,0,8,28,20,29,14,22,27,24,27,3,20,24,0,0,0,0,0,0,0,0,0,0,0,0,0,0,0],"split_type":[0,0,0,0,0,0,0,0,0,0,0,0,0,0,0,0,0,0,0,0,0,0,0,0,0,0,0,0,0,0,0,0,0],"sum_hessian":[4.9467435E2,1.51358E2,3.433163E2,1.4876854E2,2.589461E0,3.1267162E1,3.1204916E2,7.640594E1,7.23626E1,2.5295421E2,5.909495E1,7.1650566E1,4.755375E0,4.7404396E1,2.4958206E1,1.3800682E2,1.14947395E2,5.5794666E1,3.300286E0,6.963911E1,2.011461E0,2.1579607E0,2.5974143E0,7.970411E0,3.9433987E1,2.2002136E1,2.9560702E0,3.5818684E1,1.0218813E2,6.6219955E1,4.8727444E1,1.0298185E0,5.4764847E1],"tree_param":{"num_deleted":"0","num_feature":"30","num_nodes":"33","size_leaf_vector":"1"}},{"base_weights":[1.5378739E-1,6.333499E-1,-1.2733828E-1,3.8504177E-1,9.8615897E-1,-4.589697E-1,4.300493E-1,4.8813164E-1,-1.1756555E0,1.0358369E0,-6.300207E-2,-8.1373745E-1,5.939659E-1,5.817367E-1,-1.0603082E-1,-1.5378128E-1,